function [y1] = LIPSUBNET(x1)
%MYNEURALNETWORKFUNCTION neural network simulation function.
% NNet_SCG_LMSD_H64x2_PE0797_USED
% Generated by Neural Network Toolbox function genFunction, 05-Jul-2018 15:59:43.
% 
% [y1] = myNeuralNetworkFunction(x1) takes these arguments:
%   x = 7xQ matrix, input #1
% and returns:
%   y = 8xQ matrix, output #1
% where Q is the number of samples.

%#ok<*RPMT0>

% ===== NEURAL NETWORK CONSTANTS =====

% Input 1
x1_step1.xoffset = [61.0289;36.1673;2.3451;0.414;0.4263407986854;0.772191220806192;0.00242585966384468];
x1_step1.gain = [0.000428994889426782;0.0313319035541345;0.0204802831194338;0.0200831442170586;0.0473756675174835;0.106436990981312;2.0105796197072];
x1_step1.ymin = -1;

% Layer 1
b1 = [2.5364035838649883203;-2.4529650182458655472;2.4629339167902135621;2.2959899693514218555;1.9498530616771003743;-2.1357546751406308871;-2.1330794062754243612;2.0979364784069578498;2.0130381166714310659;1.3400582274224996926;-1.4412147635988987737;0.89446199451554797566;-1.5504013922101917977;1.6107780306635766099;-1.3005654766002092693;1.1114638017002671511;0.84863796492446430531;-1.2123121324204575444;1.1488597411741705567;-0.82979157075613785288;1.0584606240585838766;0.67951881746322728706;-0.36095903069329970947;0.73694601691362060514;0.040922340373715136719;0.19830841470245788583;0.089085863491402059178;-0.48162581654185782076;-0.15882425403215003068;0.28034615082860359081;-0.30992715203248571987;0.55959576640971475658;-0.97280545806150564569;-0.30389472292945524101;-0.21695600770757403342;0.54739975259049589162;-0.2717803714628089784;0.71604728485440904961;-1.1468445845685013573;-0.48141748430892683519;-0.73167670542700657954;-1.2095172084083365416;-0.94084618559673593996;0.65141288934681318423;-1.1451556106974467575;0.73906026023256610191;-1.8315020747321852923;-1.2822296873860385968;-1.747756749326387915;0.88287484863804432944;1.750380824245823419;2.0219719120075683172;-1.5951455352127579257;2.0552707271810315426;1.4056762512423448541;2.0694235625155887881;-2.5049283301559874815;-2.1502835958283710305;1.8583146292176484504;1.894872710768131352;2.6969218656290929736;-2.7743765569030220952;-2.8268908603340894281;-2.8167984780942512124];
IW1_1 = [-0.59627029865990288648 -0.96976973361994234235 1.352635107254505975 -1.1330046881624349364 -0.41619762958348777149 -1.0342084236936499586 0.90407031639508428356;0.36890699158427425752 0.99408878914080367473 -0.84401380248207358292 1.4195079014259006644 1.2071521030244292128 0.19493958457114693439 -1.0431430653149240673;-1.4108789903391625309 -0.18910551635872366316 1.297237715655377821 0.052000792906332249377 1.2521099018581069995 -0.5411350338495751755 0.76094267470062515457;-1.0174949891660580725 0.6851922214638651587 0.8834543952922843113 0.29966451687143774718 -1.1170888233579721049 -0.99106347918704140731 -1.3519088740940601312;-1.3489700614074111584 -1.3775364066006119401 -1.4245304196055039725 -0.46350126071602387734 -0.15795412910790881944 -0.88230321594528138274 -1.1156397493773611007;0.57753962056312979634 -1.7000953735815125256 1.0415107668994072476 0.70583053546231333542 0.84870844141005141736 0.8175708819967604235 -0.49393698173434708032;2.1832740734676794325 0.93001518587400533455 2.1814358337268271448 0.46110750443888071093 -0.28103585865762059637 0.20112160469808201824 -1.3959180667588639846;0.13086876809097197638 -0.90495894611295957244 -1.3881025642293389755 1.7989327262092531523 1.9967971922255041139 -2.473046061078679525 0.43670252520817953723;-0.50625341230748877042 -1.0105889418132110169 1.3230700331284483973 1.6414371130901961315 0.50550381743620886876 0.62472604139684972946 -1.1734489174228783792;-0.035795051967374390267 0.43974111536543269985 -1.8817846221954741548 1.491747076215990564 1.9393302525895876887 1.4041807421381502508 1.4163200530615278616;1.3145614032313013286 1.6039799742412148564 -1.6689052528761034733 0.32402510877986123727 0.75658549931582441683 -1.2461499960184301283 0.83729845934968871735;-3.8581750072235068139 -0.35299035839228637412 1.473787913242499803 1.1213567543688975903 1.7586036506221378595 0.95104181869514914371 -0.53458255984135560901;1.1145844857435360797 -1.0923660362569203031 -0.1330655163424888654 1.5787493093814510825 -0.034857250893154743954 -1.1027366779432212773 1.0880211873290601687;-0.7214757939109689433 1.3290307158117986575 0.73129155364706854847 -0.442232433824003901 1.1887439122431224803 -1.2484141715354803992 -0.53407666427025468625;0.10917685267903157187 -1.3194024339405636681 -1.9465341248612746394 0.061220754968383812866 0.23036959777313734121 0.41514651105775468576 2.352507532065526874;-0.8380408734140123439 -1.7107686680485902908 -0.78931830811915582036 -1.2227543797549751403 -0.4140995845633090866 1.5551842374393110013 1.7818658195397798494;-1.6458210201234813042 -1.7142704337895993127 1.6245931652642788823 -0.40651549322194396874 -0.82492581452515956197 0.83748364104615058423 -0.53846222514181329988;1.1887169577763996298 0.85253797363362870954 -0.64278159789126743107 0.74154597508329300748 0.91784581925006503145 1.5529931745304776936 -0.2012983444235920405;0.048189468964422908781 0.40419359486060202347 -1.124809923870215389 2.0255720931373053517 -0.12489618043002652381 -2.5886130391940529449 -2.95781230331562206;1.5549190183773136109 -0.30787179986626733719 -0.98107400528949839646 -2.0499896440313061241 -1.5749425208276306432 0.97178541753042169127 -0.40632847933926241613;-1.8603586414477519817 0.99259189791663593461 1.7952178098560145347 1.1314826408371891908 0.18899162666773375308 1.3195695530392317352 -0.95097925502073632487;-1.1404659726412478271 1.627257888629888738 -1.3501838554264971037 -0.54478367418122952692 -0.40142362617854582263 0.16040951171948047982 0.58087122150876990823;0.96211772106451443065 -1.1981284481245575435 0.87365604879716984854 -0.89433674828804832213 -0.023770649862982350109 -1.209422592031792032 -1.4087113293825366256;-2.6564584849652836951 -1.1999406030963035708 0.89735310744727803112 -1.7613315607910557947 1.1484181761112692843 1.8870050753465656967 -0.013681151243588190319;-3.1684081563043258178 -0.64276677148781191651 -0.97380511873520692046 1.8659181761407506173 -0.15550243532001659097 0.92823733950732756348 -2.0780065723542282541;-1.4490542516322870714 0.78244786179698799788 -1.6542901793622899476 1.1712685740457904338 0.21271809010883693802 0.17701476112663316886 0.58415730281970656979;-1.8344169264074468018 0.35378973190509721558 -0.90702909567914169475 -0.79016380642282668667 -0.17526193797051245471 -0.069606095771144141371 1.4546114020917362275;0.48969849983539887051 -1.0009038556838307787 0.86062488882379739596 -0.73992863644201900541 1.2774428657214431659 0.99323198954404612326 1.2423267150822285831;1.7784566064239326622 -0.17968423272841038685 1.952317968827419925 -2.0176739806438210856 -0.80974637922009717883 0.15161921515686049844 0.31998509547336062564;3.3250836205383071942 -0.14922247727323881272 1.3714033563247476355 -0.41827600578020968092 -1.4915500589220473948 -1.6780153599716440826 2.6821282747259380663;-3.2419028276341745887 0.40598707820826795967 -1.3000923361314544735 -0.11308686128242034785 2.1581827778375730631 0.079739972288565746927 -2.188685567845547908;2.8907843370674015659 1.2310994371555430416 -1.867695275093048668 -1.4685224427948284642 0.72486856169090885249 -1.8166128324792558679 -1.8589986144878107854;-4.3006667935551963211 -0.36958992730723339015 1.7157257904435345708 -0.55109551248501020826 1.3759581359747377061 0.64649901366439233019 -0.73554140360801689713;-0.33359667074935162034 1.3301245416756113382 -1.616534392414355592 -0.34319581956469441542 -0.5779115586945809957 -0.59448939133783285094 0.84084608975412633569;-0.36834126241294967707 -0.19219649902159743893 -2.1524933792589280301 0.77491382756729676462 2.1517458913883333871 -0.98562882610205737599 1.2738848343693423004;2.0724754332075634444 1.0432921235421301898 -1.2842996148079037777 -1.8957314560030558148 0.048795680319739076491 1.6752038009880851899 -1.5221108732946022624;-3.3353148483101882071 -1.7232833886778833321 -0.94413456615086210899 0.078232599764453056301 0.13683977510553971269 -0.71885221445828217934 -1.4553731084598784395;1.060927505822794048 -1.2650379135509461914 -1.9364279540383346756 -0.26380210131504328031 -1.5108578135817252175 -0.64442246868638308754 -1.3795939547632170008;-3.0696767235008279862 -1.9256084829727426744 2.4311068135402389423 -0.16970615020287529995 -0.98117139281087994984 0.47924376079148278684 0.93080647696641938271;0.99418481434734873314 1.9339179371975021571 1.3493469247987024406 -0.26972633274668761372 1.1661211731717524565 -2.1653566409289908279 -1.6360581936883189513;-0.84495137181572399498 -1.115420828139408016 -0.52810959345790020603 -1.173585412525329108 1.9298839838336654395 1.593859062177344299 0.70134211393140055701;-0.60753292015317084118 0.8435208423664261046 0.10386204675178853374 -1.2557959177678976737 1.4988425038456067995 -1.112228705977616805 0.29341422509093006976;0.23942262617202411668 0.42405367774787111612 -1.8435347617604866954 -0.90772780831106203436 0.18949495391608509043 -2.6481621248976940919 -1.7324243131543024532;0.029392717665035306834 0.11577701909928653223 -1.5152895389147216232 -1.0006351368361157128 1.4299557582082798035 -1.5449372561957912531 -0.20958271496242036891;-1.9386030921252248582 0.99561094352594747825 0.94713142375870484901 -0.77866309884506823558 -0.36334379628443813637 1.6765628301718824567 -3.0952966571612270386;0.20299499942676080266 -1.8380321888055861645 -0.33601121859476684728 2.0095116814310465259 1.1126808394628071586 0.37600279746741976927 4.097335385640712424;-2.8380184637903513867 -1.8969616644777165249 0.55208094053368372833 -0.47986117116813792327 -0.40663584173457034687 -1.6787349507650175529 0.53178725310742080978;-1.0571661590889840365 -1.614671370294708197 -0.20209051889542192781 -0.090101578854557801135 1.4392993160939253627 -0.77796873358241314111 0.13737283281593631878;-1.9908397979834853153 -0.74897994034126613716 1.4665807614856016805 -0.19870337932884507559 -0.59484716754615185597 -1.8716298406399425325 0.5627467512554594764;1.2488221648444541856 -0.86002569393706229661 -1.246253734638022026 -1.2927785896260877152 0.015553673980542205221 1.61114477558552327 2.4662335858448853898;2.3286508918604291729 0.20195118301749862 2.0666158847578985913 0.38406986389408265259 -0.63181618715536747022 -2.2579011181143031628 -0.44555796219967386262;2.7810263931853382857 -0.12407941694485194462 -1.147845987384415789 0.31282386979383586256 -1.4224197069662540827 1.8234997887519825976 -0.26320111339456930821;-1.117605867278271381 -1.1141515808173898527 -1.1450046228412358307 0.280496165319310653 -0.85644631395123937967 0.99544719771448131329 -0.9516334822832114293;4.864916848231583657 0.63737940536664627889 -1.6082314457869901769 -0.27148831943882156814 1.0047565876204969104 -1.6464165980470697459 0.72091462047083254561;1.9651482802526336613 0.58784110291973512563 1.2501191394017785452 -1.2834358992828880375 -0.11885811787033569165 2.6232160718614392358 -0.044277880142494910332;0.46882510568380769689 -0.85392286458551458495 -0.78205135406370840379 1.3904153900255948884 0.41295777420096385635 0.7258876621188271594 -1.8116506325664700761;-5.4720087231641389991 -2.5989895123677113631 0.099774592157877387 0.34393407214347754275 -1.0059633606337656797 -1.4707283086494256086 -0.69369004321182359263;-0.10218642105815430032 -1.6233922278128316563 -0.4319845703049632335 -0.92249259792360582821 0.94776183502473088094 -0.84220162242217111448 1.0107998596533696034;1.5273540297907848284 1.1551921467327428417 1.1797141502500396726 0.9485342127017024616 0.81806136111250737919 -0.81465593380019862835 1.0704154896361501859;0.40306301378595282836 1.0553147947421883668 -0.09387113402829704023 1.0835162290929152284 -0.091452582952851871334 0.43148481323387199993 2.282780327602117687;1.5070180233536689673 0.01459200846447424732 -0.37000960492834744642 -0.58667438345011613254 1.4238032014187529395 1.6386691263354700165 -0.67999550190097168834;-1.5884909736775543188 0.73728415145801640129 0.10873334328580565311 1.6882117614329306132 -0.37545847643414881345 -1.6285880924542430748 1.3199927992998139459;-1.827783400585276441 0.13224545219237107685 1.8024691038231537288 0.29266708861672630082 -1.166905268594978784 -0.57714775828674147462 1.3711334561154422396;-2.8522798044332851042 -0.42195491568544202243 -2.1214205444227745012 -0.48170172794738946864 1.188485236704742265 -1.4214796755957734842 1.5524004016206152112];

% Layer 2
b2 = [-1.4404628505425716156;1.3418569704942027165;-1.409877230346528787;-1.4154598542117950988;1.464298739573232977;-1.1392701776828422222;1.2137559628465834916;1.2253061340294042481;-1.160406024658862334;0.95263505458890929134;-0.86125673138912262061;-0.98341222002995798412;0.87703293765899303924;0.74341213850583709455;-0.80662147287838359411;0.65267280057627163892;-0.75792811720024977351;0.74170704108866769566;0.61914943588161441834;-0.41538657303280840383;-0.51376060004366419509;0.42072964050401862046;-0.43423536521953237655;0.33879633564229988396;-0.38557096777463140125;0.091205624399884790976;0.24543401748731638601;-0.28871596713929736922;-0.12385657868529161008;0.39048874168010350161;-0.17129774898045541098;0.091692679720096245677;-0.042442298543777005893;-0.1110900422224420786;-0.15575535140830040759;0.052708627814510598808;0.027448453098517511251;0.18923627296716213908;0.43230060450711260689;0.27172174534432758097;0.39191145518586939511;-0.47344646145629160072;0.44909818387590749733;0.51309607644650134795;0.61768059040198208809;0.70674103202147753322;-0.7041581342663931764;-0.50618015954109996102;-0.8763097864036420992;0.88398269741398416421;-0.81628549753730472727;-1.0161170147222489124;-1.0228362575664138312;0.9356601505732828894;-0.86946903365758698712;-1.1503711640067473265;0.8726125509835662708;-1.2212560165991352967;-1.2977594923506468039;-1.3184578797240706916;-1.4425529301481538891;1.400023096357786212;1.489748690692600297;-1.5050096151775520514];
LW2_1 = [0.24998041712233606826 -0.077308435281791487714 0.042687399242598601801 0.087134078267224537862 0.14566201729721892089 0.036759415974342742051 -0.10239968935916078652 0.85995892406793883467 0.048437044451685597191 -0.3219282193873223008 0.29283915720215064615 -0.31002307842224707812 -0.0090908947260580994648 0.25534378237231930564 0.18693226562500098176 0.73945278318674501072 -0.57588947871872797624 -0.040654141187462314311 0.63443162060697366744 0.37250711556330157181 -0.41281852563699017455 0.27583091692892569569 -0.20390748821856541362 0.0074587418942027661553 0.11058437528867404165 0.35920356844414030872 0.23507109911294357674 0.17187227286171960494 -0.16387182900039143352 -0.82462898757305214126 0.57947979303084384828 1.5213381101243457216 -0.074832614136331229715 -0.06919334648423602907 0.32368946011482746528 0.5352684352571013271 0.82094488302124779544 0.45214354995915151392 -0.76010772010204685767 0.43965612798489595026 -0.33426939261666971381 0.51991380347805238316 0.78418731194817248298 0.42850086386592356469 -0.11038012678195324723 0.34560943254962689375 0.2567476341919221472 -0.12641589214057841195 -0.023377772664695001953 0.50365696632980427871 0.86913050746469722174 -0.61532489987272798171 -0.27474995780781713561 0.6973321655522036755 -0.57399345318961070284 0.59020082777541826857 0.79777080899604424502 -0.24003290119699607907 -0.058451206197974614476 -0.047869559275634035456 0.12735778425676527736 -0.23419408610306205465 -0.63361755629938987244 0.41841202913819336429;-0.21339514550386554093 0.27566034728025262668 -0.16261900611425700314 -0.21574736899807303581 -0.29783473214411793073 0.37210089781871880099 1.0802958548237409087 -0.78333342168678510298 -0.52432850890975968294 0.20423313934364192845 -0.092625662980374126598 0.11836512385496601729 0.075844597043716543983 -0.037454496696655993626 -0.52289558872476071816 -0.2376893472279431041 0.43248230080086430549 0.29076995816297884767 0.059334544591457705209 0.40195263700247246819 0.30422653535653287893 -0.02711283214341443995 0.46314066561094596741 0.12421408632073603628 -0.55476849274612927143 -0.63899082102939885885 -0.28946095872461274912 0.11878094418632788309 0.86424837574666402151 -0.23168807773810912165 -0.12348882170789186874 -0.12553612839417171987 0.467592199884632298 0.059518645531447554597 -0.44970874608745958767 0.53276967595030644276 -0.35922253961131866973 -0.12520901539027459726 0.29500768502627511269 -0.33823981049630125195 -0.27091266591833684796 -0.19843049395953937797 0.075178843698185934818 -0.15414120943796527641 -0.30546307728760835332 -0.94420889434144028574 -0.56126750427543381505 -0.23810002396269525082 0.46915356490322196459 0.99860532325607298532 -0.49480906225227239137 0.26683251957700593326 0.2662194843251970422 -0.36855128060574771087 1.0412606369555419406 -0.14952723651986563058 -0.31195961813617423264 0.02739769068307569902 0.27570611165702252343 -0.064032723256272239265 0.13867708505674353203 -0.37966661137490642641 0.083871714490848042756 -0.29080497462035442835;0.2016373339526064401 0.24354806533128023349 0.17882599864662956923 -0.20279800075298232143 -0.32598947491203394966 -0.2464790481282164436 -0.058703459457816763167 -0.24425309507500447825 -0.25239277252174796562 0.27411186818328381332 0.32210023133631709991 0.084616463877105960179 0.26828401234369442241 -0.11943328010571091502 -0.24994895744466777421 -0.21224672782454601094 0.053201271689717069546 -0.1922006437990102512 0.17462605744728734725 -0.3297063151742875009 -0.2224575955880980227 -0.12697567481269667056 0.16670681625085628785 0.16861284644052323967 -0.11726241478999815948 0.15989851145430933332 0.048672232986717869907 -0.09939787439005606795 0.13326668114739087523 -0.22507038863085090941 -0.035578294099475084311 -0.24992858882129803666 0.33212854865627744472 -0.13946641247801355723 0.3052447783924807645 0.096593509196581453513 0.13792039652002632821 -0.15662770480336266066 -0.16218909307178974721 -0.16450677180629766361 0.090037662612116126093 -0.19144202221139633435 -0.25500854576454590195 -0.09695248622589235088 -0.13410727094568211659 -0.18893537313147856782 -0.22247812937280245227 0.18241960571870249885 -0.061776061030500803439 0.11514302018213654066 -0.13325600373467225146 -0.072619647906314990782 0.075924237365080360362 0.047522524401438573372 0.16209613832074784567 0.1678775256895572443 -0.26545837353012063931 -0.012653805492174232533 -0.18350004885108839314 -0.26454743099918792693 -0.054844453025469482033 0.029267227289098408233 -0.055632041278345527313 0.33015433952437717169;0.026486907728646879451 0.20279538246954176284 -0.21480111944842786298 0.12727270204934079678 -0.20165384311337777867 0.33619313956278978894 0.043919712770865218521 0.15773197904828489824 0.044049703461403091898 -0.39615519148647176939 0.1225609555752298907 -0.10760367584740955504 -0.066813494292962530285 -0.25446754924161124611 -0.26640028822883676796 -0.18433938885815964737 0.040992548407810677769 -0.11378568152113381629 -0.046506013952267034883 0.21180335515100293109 0.16213412058715301334 0.17570233868438361879 -0.013531034440529091448 -0.37322764409515019057 0.19027412447836464238 -0.12245960543128067699 -0.18206717694241733585 0.20170563218114997972 -0.2626585759857874014 0.076116007169831176316 -0.26105092857971129439 0.73678829423654490505 -0.0023271069481193024792 -0.012591315016487258233 0.10178783155295073604 0.27952240631519087444 -0.46139726630019317621 0.17794502151700705705 -0.20178045429384502962 0.18258995551140538849 0.15479051846546421078 0.0070790070311639837278 0.011465062332059504716 0.35730941719587960836 0.13602276281135819436 0.12015707727757818368 0.013568433761341319385 0.25973684680455416673 0.31850183998171333055 -0.12656323884064424323 0.40180115583266223789 -0.25385138633168724542 0.022260351254013866634 0.028499847830520071146 -0.17432621798564920668 0.19078988470821772738 -0.30658267190351107256 0.38141819613001437528 -0.33180336425828266256 0.064385547467173648295 -0.1148136675020409031 0.13635457368997905281 0.3062533726566245007 0.070060852592123315508;-0.0392933467787475732 0.14355037043761550986 -0.043241374135462952444 -0.047426956298934890011 -0.10708427959709750088 -0.068090675896656516208 0.10042975630781965368 0.80999221160251688723 0.14781818810969671318 -0.32922663588676426283 0.33786581326579717688 -0.57374792519410766634 0.3273869288012661305 -0.068836221473693767758 0.084415091839075154234 -0.38290839457709230365 -0.5925302429530332482 0.13706339000114500792 -0.49781022307223848911 0.34039564079457718115 -0.48757425361950551546 -0.12940881257479544542 -0.17174910352333472296 -0.4674145711501144218 -0.7416811688018873916 -0.13824565744356073771 -0.20045134099604489109 -0.28320486318104415302 0.28191620955859603148 0.7160725791602126078 -0.27207138144752490705 0.8953951898807818166 -0.55519783561469038258 0.021472211866300668082 0.60843864878829712062 -0.10727696300402617124 -0.98328647188298101689 -0.54632504855006858158 -0.96859906151214048009 -0.32343375690423659119 0.50294292135434992552 0.082174993320839037625 0.19871912638211661206 -0.52864683350877395007 -1.1916895951022121736 1.3077724894641253872 -0.74657150690798868009 -0.36548296918879041861 -0.46783120536391875621 -0.29547606514179225456 -0.034099642336046308289 0.45983823773935977863 -0.27515568546461943722 0.8934185059355018721 0.24443199793157208144 0.30160469248160298728 -1.4886174586228326788 -0.14934557902307191157 0.17207046657079205776 0.27436689828888821685 0.015683839465548816278 0.18867367088981226719 -0.31347814440426635674 -0.5584138660585487024;0.34369774916063333681 -0.044795996300094217957 0.31130417100328983127 0.41887642475942005182 0.36962628931840929569 0.098218700032275327305 -0.49870364901166058802 -0.643804469288783765 -0.071279890508989460218 -0.067574467747268607276 -0.28011445970534865069 0.3608897136432944186 -0.27294765818467842111 0.2241253773105976177 -0.27041922912113763866 0.0798703444869904855 0.099303069582366509938 -0.00026164652068664764244 -0.15359163389217486695 0.57670494191483401281 -0.20190632035674913047 0.32723391685392516637 -0.031153716141140007367 0.45599702631758437521 0.35090503276186518766 0.45346039463937742875 -0.082446155245657168353 -0.060089617153334502764 0.0038006333671955203936 -0.45968907606684938916 0.3607718628018050655 0.43562256269411098186 0.28982713512851943083 0.48695681062660184368 -0.055000262303488839377 0.61882023425747956225 0.45817982149747144005 0.4104637062533241787 -0.056038864610793381882 -0.41369079960570109833 -0.017776730790886135364 0.30225983683955864878 0.46042326830313762276 0.154412451149489649 0.31760881831601867065 -0.39559936760890163088 0.37488769630286694623 -0.38319488126474277045 0.26859040199063582977 0.29205901860052885244 -0.26438146567545650623 0.28722435472248331045 0.1463984610828015509 -0.32529021633691007631 0.51893592000123078822 -0.016806179194393772863 0.57727553374416151755 0.11541421685648733941 0.31926347108439118161 0.38476370404507342915 -0.070453575303593987678 -0.55275014144962264506 -0.23075532336222379093 0.33974950772503215157;-0.098985584572705051509 0.050680804921799528506 -0.40961758251594537761 0.074149338343906648352 0.045646698701176387225 0.069040419936944971702 0.20711550447908871897 -0.046781284770977697718 0.55193556546098132554 0.47745744957684055354 0.17448760137105984169 -0.97871937903944050685 -0.050023387213102933624 -0.11472345662852918846 -0.053187933289839846307 0.023819608335323320253 -0.4840666474493519611 -0.013783985052619181916 0.23629201474325381427 0.2555686558662101926 -0.76288259866530705455 -0.19833139655923609501 0.13041167356543836853 0.17664695945428304791 -0.37364579030719069497 -0.33619002543034182118 -0.43330925442483231302 0.11380585220889273546 -0.62343390190155745234 0.62791006130412441166 -0.06184332033979123705 0.51661356995035601081 -0.87486136575410222704 -0.087172943130604044204 -0.22529290203761764833 0.43317184509283135352 -0.12295554259358314197 1.0526559906444652448 -1.1945728179251975387 0.75278841045749234073 -0.70480410263887360856 -0.74596506812180718438 -0.04629783524846546594 -0.63709143770986964572 -0.461646721303751284 -0.55011247844507416005 -0.82489894498736282547 -0.061278579353623054138 -0.7959767560687873722 -0.13836584408604968299 -0.23308724835059924096 0.9380102795290864437 0.407327484860079303 0.78306193670986679045 0.77498911939377945757 0.27458485764256734818 -0.23513380214737167329 0.074161121350915834571 -0.53894785652973409285 -0.11400333553470776149 0.51728926739795910716 -0.098785325128267459371 -1.0791928153962124792 -0.22848452453296502762;-0.13884076193587113757 0.18240374279710142025 -0.095773094015184107031 -0.1158212481224172169 0.038048255713063874883 -0.096992379120290073136 0.14905120944916061543 -0.84131267665145392787 0.25607602802842283074 0.0054323061395568396359 -0.37354500272607593647 0.23273773993663218751 -0.16151409172467751096 0.29889139058709074392 -0.56898105703667234412 -0.035804065225968129127 0.59107275543518167371 -0.34946641307833814505 -0.10003839172498545096 0.17727998897505958809 0.43140401049297344427 0.29125378243824340263 -0.02569565435184650859 0.0099222462304637080305 -0.046307362503828768119 -0.041562553427527224037 0.31872236942947690386 -0.173261458781148181 0.43503801202592490283 -0.044253551280493942655 -0.45567780457149664741 -0.15205786869001192141 -0.034629145782439516021 0.20546900467641646126 -0.95763010788110736193 -0.51587350159315237264 -0.87380353469924887388 -0.36796208569837901559 0.23515428085158454619 0.25206799635747417776 0.2353363596754375342 -0.45003930511655465541 -0.7585793669267303363 -0.27608078573780442388 0.76943033102744795571 -0.31601414331569355198 -1.1280970291111371839 -0.20288129518684933084 -0.99668482307776384843 0.72110680853836561788 0.61679549207322881266 0.62001568333328527238 0.063695248770495385693 -0.2895865510278100019 0.68811334697149584283 0.27848115609366219658 -1.3735364123291575744 0.2336559238903913871 -0.17256786111463207067 0.19792102034666181343 0.48860715676807298102 -0.37177581954214994342 0.42748592094123283314 -0.63778359118999405908;0.02900475677346107603 -0.17483940647712631344 -0.29730710875441479502 0.046109176360562394159 0.13562266473897546804 0.2452394157924935314 0.19165251755371048858 -0.031012487542504355714 0.14459061118796040502 0.26010500005226305786 -0.23194276199610491807 -0.039662097572367778497 0.33410535612988001564 -0.22778491277172085994 -0.22502332519240408892 -0.036061667264593644244 -0.25974513854984021544 -0.19994739832862790108 0.19670023030904909556 -0.13947387325512447531 0.1483092473684015089 -0.083054394365150122082 -0.03032710859113992713 0.076664198040053019301 -0.30126352475395568042 0.23471149561547255402 0.10106263050970300255 0.3023075570199279527 -0.30161598497503427918 -0.27084446925263411243 -0.27562712601368277721 -0.30035874752234348328 -0.1815395378202282195 -0.29515103315578222754 -0.062358361683972886313 0.078854231808447972085 0.072771678672396922227 -0.23128135452394851801 -0.046622703601430823261 -0.21165330053914183095 -0.01878932946778546359 0.26319496100211287049 0.15021398979994804446 0.17108337798131872942 -4.0509513572509167113e-05 -0.048743585236691783225 0.096200629401076084846 0.32301718315785410418 0.044775570655656779517 0.069928772584968254544 -0.18100015156628043722 -0.14932437318727137532 -0.20529713083605236057 0.12947409627893208262 0.048568554685977212426 0.038028691012104876013 0.21539790046843707016 0.33044535683503389878 -0.085615255717732624552 -0.17344629849919404596 -0.11222580191392252102 -0.047146624340048286228 -0.17478209607035077866 -0.21986012436553220573;-0.13423178943654556772 -0.17814061323665833503 -0.013671030483691384502 -0.12021110526723779999 0.095219243525301755504 0.3186962519983468356 0.18334532851779369866 -0.27212077656698913097 -0.19975229997769258783 0.12266884024719082458 0.34927367993720365158 -0.3363398783654653057 0.039552782708115075128 0.025544057543977975733 -0.18178484450240592341 -0.27827641021973825719 0.25694279045735185507 0.0042063757352056923774 0.1428543864396064067 0.13818578185731436592 0.30665520130165158097 0.030324171488431955063 -0.23479467588961527857 -0.39863235562291154945 0.23746203432809878664 0.18056712862112503371 -0.13210981710830685398 -0.15427667567572861396 -0.10651326671772709531 -0.37956520120251424633 -0.072279073215021777399 0.15573113481860198504 -0.16173258930326575578 -0.22020901878493964743 0.30908105422375015126 0.13656607611784135625 -0.27027172356933071296 -0.19897787050197721093 0.022710042873130133895 -0.12530423324135514518 -0.015536210075005304002 0.091134781995030750279 0.09532467919290354974 -0.062848022359699343142 0.041740442713600986457 -0.39385969267147857842 -0.30438239458767851753 -0.065905514717437108096 -0.33235141827423897443 -0.36036994816980455481 -0.18525803351936792618 0.039418681795311799609 -0.1754477395005853424 0.24261917389429837888 0.23670081706797885257 0.2804324556738857499 -0.12763970267772933864 0.21795972796581536413 -0.060272057115404113758 -0.20846186418582016153 0.10045412383711792292 -0.2641395450803642464 0.30997802533022128513 0.14856833675059558098;0.33431640917071286934 -0.38275144228570157079 0.098950987026445988426 0.007717410982377951624 -0.034768424019146156045 -0.086901300918068899448 0.62258538026850585023 0.34042492420088749094 -0.20879972578588687493 0.040756345563335828752 0.31868936350235632649 -0.54062986997250550569 0.031697500456878552333 0.14508064143128007739 -0.29060279264955152234 0.081410857743748329951 -0.26345606313362684991 0.16949081108837213416 0.39489041466505186984 0.087028395227552637903 -0.68275284008132930413 0.50643665963648820671 -0.32603539695870414894 -0.9724367391764510149 -1.3445510912296725348 -0.30771284927542708054 -0.006265571685253792239 0.084080882330256137558 0.74908934180762765109 1.4984831014149320172 -0.97107570998692904762 1.8350452014618967578 -0.91577075338585700592 0.046064267052852353457 0.10421547074820264323 0.92735214845066238354 -1.6585699015619228547 0.037893922599536292162 -1.4336513900390470688 0.53714631038952764808 0.3335684008859002847 0.048937874147900170541 -0.15153389838847544646 -0.65222725390699021197 -0.070760234648943945435 -0.64035063161560523692 -1.3901573534212228189 -0.064760835614039571895 -0.72174236774677047457 0.52216568057404844083 0.56958674447419233022 0.61640351687375116718 -0.026244702472825769818 1.9197040681424093478 1.0591638868038084631 -0.76135080733686799626 -2.646600593249002209 -0.051599242025580069337 0.31660858384741125127 0.42849774775760612888 0.79642012497753300604 -0.95383035126371329415 -0.82610883477204255509 -0.78452258046424938609;0.29150328188600155288 -0.20023644696493289596 0.058079143436555936975 0.030230206580286272944 0.39211857296531527073 -0.15822129386617564406 -0.40283983962374531052 0.47496174570349947164 -0.11840830516714657972 -0.033098284341632068506 -0.062996114155790650102 0.71540689152649561411 -0.033545364301530447571 0.14577905586341977084 0.65556009982786445089 -0.29770211803494117664 0.13975902981307306017 -0.1313790433672941127 0.6872255157530193781 -0.58886295471229699316 0.42826769209366238877 0.035782087841759915858 0.37915760890251426485 0.00068895810530853764629 0.70672926970240168565 0.41336119141771598962 -0.39487107830302525802 -0.28957215769778743564 -0.77873159940905012366 -0.30109017457473491453 0.51652911026196157707 -0.38791298518637484793 0.73261923989756339015 -0.20784735507121954168 -0.057322904163829672963 -1.1316958058795545394 0.88002122758919631984 0.44761288468908105864 0.27327065313847342942 -0.3096298041753621777 -0.17672213405380512996 0.10574492968609230936 0.050079595896499982943 0.62202063452325184745 0.33966099466721977329 -0.35081824171818482005 0.77711513736174042677 -0.067865453887666640775 -0.16428958173683633204 -0.40203399462557815047 -0.86682540835908938881 -0.8687763919760626008 0.023387459341229214355 -0.95642034358326688537 -0.91843462412841581077 0.086848967137906268876 1.6532838774937652637 -0.32058040702602613736 -0.29281601419174285716 0.28758126230565500547 -0.3696854402230132508 0.61991028797535319139 0.36369802830111569447 0.38350199422240199842;-0.19111643726704435897 -0.23449291904887037408 -0.31624230320057578059 -0.37525467036304238633 0.5975013578509108525 0.24408111547722721735 -0.28947091825583387559 0.50128106921280757291 0.54289513802754441052 -0.1406177412624282641 -0.17889431172885969512 0.68625328850283395798 0.16110562481647433541 -0.01004018429989937157 -0.1397265514420144572 0.16506568129046500504 -0.026369224484681489523 0.010505876531949509545 -1.3116602994255011083 -0.80184787166904480937 -0.042255065465652032197 -0.50702823315559364392 0.46333152534134858236 0.56476716326225562259 0.4299911479841872497 0.20390906757151314177 -0.031511832791470184567 -0.080089220879925052121 -0.83266574154569039656 0.40707474245811797742 0.15820309655812173077 -1.3299654033203898162 0.70177203523377618133 -0.14571671107664552203 0.18635909124346591859 -1.249280782978570592 0.45327987936309704908 -0.45586333975600396018 1.1234251921620239667 -0.87605138440128371702 0.33084827411091694005 -0.35547979007878993674 0.18388720081803816564 -0.38584928391145650872 0.19218569061292925526 0.49936204753324464622 1.058271431307927557 -0.15722937559979180411 0.37342880425661140187 0.066666284312140652868 -0.2231252095760862808 -0.89967393674420470528 0.13647793834041077599 -1.4030878332111587081 -0.94124317461900219861 0.26971730794135906351 1.2494698319846457846 -0.057442699661954657597 0.099462691960163829297 0.14240400000878983278 -0.87233176226216779803 0.94102473205484282737 0.86313808073814202171 1.5706685108972679998;-0.1700256127544312601 -0.056871219245455691127 -0.35713892468604030439 0.13698252472344787933 -0.36181417242769475795 0.40948624192443344727 -0.047039055439911131584 -0.00069540815277505346574 -0.29656416607624147552 0.31758151799764383627 0.30991939562143017151 0.0023552185925793407001 0.083574546185881809501 0.1597455378327017339 -0.30982135055321508021 0.45901610181338475813 -0.23134689471049768583 0.16202460587237776934 0.16909567541262618406 -0.19066786987146983057 -0.062269215592051944952 -0.41467098988316891672 0.031380724000167163623 0.50860075026069684334 0.49588439091595237773 0.14611791223991341115 -0.055151230637921773436 -0.069175977563444762675 -0.70769078064122392657 -0.57452291232696339751 1.205875554836387753 0.95466361022490209276 0.54173468323768281252 0.076778504801242708488 0.31343318138229331327 0.447501461072309481 0.53625562057161690888 0.47239529389572981755 -0.57332831410924134374 -0.0026320245206418332005 0.016296812634549587284 -0.070500612909659254868 0.062052409634209985956 -0.2989767319992931438 0.050359083597440908175 -0.37310475106762147623 -0.10811550154903518117 0.14204526724469609955 -0.033828904550738503332 0.32608859091464381663 -0.79026226876742622363 -0.40185049781813131364 0.4449943183869918828 0.11678186687009667333 -0.48016804607707069819 -0.070912941540573065646 0.64035570156449028723 -0.10859238867333373402 -0.23409631340464209792 -0.2873484083777253506 0.28574671889781494416 -0.20280147366167133871 -0.74186163343118316504 0.87866026800911312122;0.21084450495864062725 0.14036485407954010785 -0.043715620712482500254 -0.169849518244323483 -0.20775000668112966751 0.052153523366726989297 0.14293923580772585624 -0.13877089027219224882 -0.30092440890167759804 0.11759364337886508978 -0.077853749703377370106 0.36416265214150900231 0.13822988915486775219 0.27563219446856490613 0.15368051522606310244 -0.073646513092787579957 -0.29599531274631912803 0.049422275238776382233 -0.082607133009842181881 0.27541246541936054149 -0.25162383763308765472 0.074839489260611305466 -0.14349755022854751574 0.062629465101742151645 -0.26183679740659526747 0.021630989965040890721 -0.20597120274370564474 0.078081464397644725906 0.20231904720078000559 -0.37035866040333853544 -0.061415541493001338247 0.12072064027053998336 -0.11266550524407703548 0.044655238665123830888 0.040173974639732011604 -0.020102433135944019343 -0.20752797376153392372 -0.21532175320545976493 -0.028199417475679972034 0.29851016937592717015 0.40534475371806100163 0.30434049506784693895 -0.0086371602333118989436 -0.2120481356235794923 0.1645440499201200335 0.29842417842636143055 -0.24974750817332752595 0.062986463668859835052 -0.28958792682176981437 -0.071186178877349945426 -0.095008831342351565685 -0.1131329563839415242 0.25311659988193196957 -0.11769622937017783226 0.13881612986998978498 0.16693734676186458565 -0.3340614961111110226 -0.10837488158680308459 0.19359832894705680806 -0.26465270066708995733 0.088405971814905823236 0.031191053283168762578 -0.17516385166103343174 0.11060493920262870482;-0.33495876587280504211 -0.15179818966017666337 0.14513638884441942833 -0.30820074631498434181 0.055276337241451339866 0.30751807695609906235 -0.49259803393002343785 -0.24977575550461320053 -0.25161862427342934767 -0.47994228960229368131 -0.26248305682757122614 0.045834234366001223859 0.12865565430989323037 -0.30639874381082626842 0.24682276902768449101 0.36133571880634446361 0.41078378816228627857 0.099875905542731110986 0.96495065483550657159 -0.32055537119482235831 -0.035602145223094620874 -0.13287491856824729108 0.054297110849901769614 0.53464769402903544737 0.090559995570978088497 -0.19726923442222815686 0.10417774229934248509 0.33424242452617031196 0.40572095729475593506 -0.015803925782171320685 -0.076971639448647946602 -1.0796544418587035175 0.6523270944649124381 -0.15826166835238181241 -0.017905495967103272903 -0.1606866810284278968 0.31869966548460720857 -0.51570474287845868844 0.89442275556250183666 0.78646099773830924207 0.1497456206276044921 0.28810938319725809542 -0.53335849161515769268 -0.034752279248042659832 0.30088044739592911814 0.014155697434934954443 0.094063982997332609703 0.37732576857994831743 0.42171968229250572646 0.32147621907813012099 0.2800233632453346666 -0.74055395820599589918 0.38992444869341824631 -0.47295488279587227787 -0.171992504229253107 0.026904614415105426034 0.26052345372172369675 -0.089086464209382335011 0.045139610214666531229 -0.2991918076268084703 -0.28939965039843196237 -0.00097516708717864839743 0.37046897469290118732 -1.0445122422463448686;0.052942296803578266229 0.0814831775685032067 0.23059823676746699084 -0.36247373917242753372 0.27315226089797911557 -0.12493680336442078427 0.42700164193146900038 -0.55513690177637553536 0.26814225955619552799 0.42304416317008558535 -0.17458064901700703908 -0.11336038768548301059 -0.40430074059697834743 0.26441764813031992665 0.26949894798084023106 -0.15013323159746480573 -0.034237875429362352175 0.27951444454264895434 0.23156287461123792326 -0.27848741708657087646 0.019060066929771930094 0.22062699667065505116 -0.22047126570387826083 0.2740467626447293803 0.026146737843786734684 -0.32164523934460276244 0.53446120299400612375 0.15879032806374898668 0.29541192463794202494 0.19567138603274888964 -0.60626629546275112581 -0.86211528102796153306 0.19705691873675812431 -0.14443541036241028253 0.32553730894035304289 -0.56177671200929291118 -0.0054323734953139607429 -0.92446067989860081227 0.28728231668044768021 -0.20321006679472228273 0.15256340098122281312 0.12970288615083858108 -0.67667477011533871956 -0.42129837700711869619 0.46982765979737239892 -0.28366409664180025629 0.037065682416966130863 0.25902306581854189771 0.3169095245900129254 0.020209530288577495089 -0.32077504834807596401 -0.15387349028556690511 0.087828578895544934246 -0.68331171247134536717 0.26711382159122920577 -0.27932980975929033729 -0.3781899595703219763 0.19776413781064017261 -0.091884382672904732492 0.04118133451521419075 0.058379675021660193401 0.41042493531401169626 0.084773797326807343033 -0.18924828137868951461;-0.01679263774480803037 -0.14222505688299971749 0.21690420397681900444 -0.17205376008881181904 -0.2606281195012286056 0.24944491412286903809 0.18778060376944527565 0.68355679147498238368 -0.10359161744544376216 0.15036242741829519698 0.48171022287467324396 -1.1477887502835366629 -0.20503210852823552934 0.091854464644713681998 -0.11072739616918594874 -0.17126768233581907142 -0.71736999275742208138 0.079918573059917896728 0.30035780984752208367 0.098122048290184143982 -0.71144441141247516391 0.20692461418553600994 -0.25180015700857782956 -1.0589118041795626546 -1.0405065230499199735 0.036738248878406612463 -0.31808246868556488973 -0.07600618478908136022 0.11250403443561496353 1.3074894423553300449 -0.99195127958127427004 1.0355595664481040963 -1.7861771741771810262 0.21676400828772232621 -0.34219249393389344904 -0.18393499199046745018 -0.98007048209779434877 0.50798647377365313549 -0.95708944137307017108 0.23818741440018439959 -0.16194541550887642245 0.089788422908730666783 0.28101600687566585801 0.38677792891069812109 -0.70382712931168811554 -0.25979911920675369252 -1.1883988305891821646 -0.019336679178139432739 -0.53204688498002272734 0.34220168520969129755 -0.3059053767050938788 0.96921628487440691924 0.19357994706150888353 1.5715139402558360171 0.0944840286819973868 0.096206792932697487997 -2.1949603318954231668 -0.17566588082803683002 0.45555203542259703475 -0.072779553040925745733 0.19530084936881619839 0.37501958783812028297 -0.61009439756692607215 -0.67776952242025201301;-0.053116643780993094692 0.14939668193604113688 -0.28974200056867066566 -0.28148475582381304871 0.17926132582256806836 -0.080228974982792550241 0.071463597193289291054 -0.36223081406873125498 0.062923311805475945491 -0.23324726247766830456 -0.31846067306218728277 -0.28380363140375586273 0.0483450894118418531 0.096331984467069600719 -0.55819964277842082367 -0.0299503768054408398 0.33885360395521219035 -0.32819096904429406747 -0.010244779112739873725 -0.1129553649012215305 0.50697196581135584026 0.12759612104646919639 -0.023225585937788468388 -0.42500266141346698667 0.21308448905716625976 -0.25725563327448547346 0.18883940999834533669 -0.0057183850353057655638 0.30604976746862200265 0.11211562307046808729 -0.077136443151575861954 -0.025932541067758857478 -0.34261209236370820941 0.15057163301440773528 -0.63073784369523644422 -0.16445940577414394634 0.063494224907445342976 0.047378987905724832819 0.71110066846298847221 0.49902910117341769958 -0.39352976127256561467 -0.35299685239521705338 0.1578906747328202298 0.054259929206315123118 -0.025122237782598609568 -0.17749781899884853331 -0.11445790989737517074 -0.10025907954782310727 -0.15890201536050446718 -0.57089585405443588062 0.52232224245532465901 -0.31758374034515168827 0.057426977636673801064 -0.056074427548424253531 0.001250670835379192854 -0.095801162084003604891 0.22239951327504312029 -0.014243948546765751798 -0.13435923183063464004 0.10177757167299046615 -1.79850109638329483e-05 0.15089179058830989866 0.42158578075107072669 -0.29515792382571509611;0.19113413154426123208 -0.12980330107429718933 0.50608065704574534127 -0.16749849199964766955 -0.36157840585765460562 -0.34300725223824335419 0.25099872677966250656 -0.14823069008769582111 0.28187683443665517702 0.42132716207617360027 0.10423259976781941438 0.59643560552863450486 -0.33083459777402046686 0.43616721293173099649 0.19612574465245896649 0.02062413125089072527 0.42152254801015132113 -0.31564369740132430797 0.4602452771750977778 -0.69307229284322324769 0.20585117248122858369 0.0082093541685458355783 0.021038816811491310027 -0.11226170701112780925 0.28466099809013417632 0.059716295765829909004 0.36816602341217979921 -0.078236971452387296666 0.70694671697251798559 -0.64835162763050235846 0.9101564927947246586 -1.5753846841167258308 0.61782204034061205533 0.36767376149381164607 0.15847217540206806619 -0.064396311396814231998 0.47697505560678588044 -0.44103538861642166413 0.57461971293575087039 -0.19116594106610645953 -0.024419081404773099186 0.0079917065353112114873 -1.0314964451359815989 -0.034092466035898730259 0.061378436063609674578 1.9616293711792347487 0.70330742376817256822 -0.081491786312129305125 0.51728909183343596556 -0.78023218671056882023 -0.46138726229318510752 -0.087027502606248030581 -0.19024888074527432358 -0.36903055431532105768 -0.065666255091940517463 -0.28068349349370691481 0.87982064476078181148 -0.46478810260141328881 0.045940358314274398754 -0.12911374940192496541 -0.51534260342571946989 -0.2199812505654246686 0.30912072759275638356 -1.4253773636704025751;0.35030292407293023293 -0.35049020517390155893 0.063095580283355837126 0.03596039664725528967 0.53016625355309787704 -0.14036369189438194227 -0.22609072265001764479 -0.29334566835901482174 -0.23310772416708441801 0.075645450097807903633 0.27490498349994341165 -0.26163833528579744092 0.2522170505902170401 0.21757923489960151464 0.31725360545002867507 -0.065645929262209162802 -0.405904152378733174 -0.25254213347235138221 1.3948280880579737584 -0.61778272175849968662 0.23074156710507970347 0.29665950751175074185 0.30525307428681469624 -0.45536081446048431998 0.62244338608789695488 0.3723800280156546183 0.41052901341864433959 -0.070775077750457382475 0.45053945904991987703 -0.70160025460799169128 0.57166996831379279786 0.35302856019647704811 0.1085714754593157666 -0.27778536945247489509 0.52476887669622551691 0.16138294746380618672 0.40515175376818257647 0.0021304655455912581592 -0.7824008080490810757 0.22050607797341675864 0.24363896734770126851 0.43866788234580811334 0.5008860791189461148 0.37737603677888498233 0.98634620248614779392 0.0398286382021820623 -0.25513271765646300393 -0.015516512070980726171 -0.64310538497362501609 -0.38605761039291808245 0.39470920510294171812 0.15053195009451347808 0.13708445224756030112 0.84236162009239867743 -0.38680937354271638373 -0.20930582525058444299 -0.50615814046736351539 -0.049674982125398836619 0.33641822732121945405 -0.12519075906833943002 0.52491368684332229133 -0.50009296172015915705 -0.80122733512956145763 -1.3175687484296101371;-0.22487703833170927248 0.25887129883643084094 -0.26313483448749402926 0.19038291079481683976 0.15799625182742024765 -0.19470939018210958737 0.214481591605827554 -0.2790410224080713264 -0.17651199976885242893 0.41522609510655900111 0.13294759082602275457 -0.24204405317298266498 -0.1942170437688855722 -0.24187471630637011333 -0.11275037697843898199 -0.33882517349765439718 -0.47675519067397881257 -0.082580295347215879054 -0.78337647800490106675 0.07886769973574217496 0.13521694686802407381 0.20225502651576693358 0.33243579287044200399 -0.15005635014537319072 -0.45818041245884760793 -0.012685509065833364128 0.19175588689071007553 -0.16996598916150032488 0.20952883190560994686 0.19771837314613721626 -0.0017469920817981361358 -0.14543301183101414731 0.2226698784553307886 0.10797865549749718905 0.4593876455302555728 0.17876738231816269309 -0.42239035044136613584 -0.084899171619455718329 0.28003677440614260785 -0.33502962400293262446 -0.056701183396749239851 0.25269320595439365151 0.13968325116728527724 0.24322280737206780632 -0.54248441193558472051 -0.29815958840105688532 -0.055398338124047513675 -0.060176537675639518721 0.16231295322981464935 0.4712716548552054463 -0.49100509449807550055 0.27012585310355652357 0.14303402931428702005 -0.17824252364759274325 0.47435237441876382247 -0.18551005521652533248 -0.50938177737402057232 0.041320405930987458287 0.17582542193460229396 -0.071928478479135915524 -0.14597565092281977739 -0.23641639312572321208 -0.1886220658956409002 0.57506857218704798829;0.17240614512059318497 0.022456893948165038144 -0.13030754439575512049 -0.23515461802905993083 -0.20476998792117334647 -0.082075233543625697452 0.12985070215988023246 -0.20973817375472605939 -0.22857299948011527979 -0.16775132241502518915 0.39074852503481188881 0.10897545207555557611 0.12817461170651286984 -0.25187627930530226417 0.21198705573660719947 0.87681811335924608741 0.062363242256146096676 0.21629330027476101339 0.56906445012828077434 0.17620594029791711299 -0.051739089622963647941 0.28909570479080365368 -0.040348931966624757006 0.63111140851410640895 -0.12828678327210735199 0.01801727135228519891 0.09347448561927013122 0.15343072553922681989 0.54743537111612128321 -0.19536460650939915795 -0.12897586380894413005 -0.46998094213663937913 0.38678738274435464639 0.024120538600863893758 0.16610488059562830698 -0.30620816027543357185 0.36868453120250466171 -0.74702578094919769303 0.66355313772945623274 0.66691164742011999067 -0.083874991920061078843 0.42310912361466190834 -0.66184820059476012766 -0.42624487954066508921 0.83328134328790193219 0.30943643216268978957 0.34428941564147469423 -0.14275935647148374485 -0.21265939117482760001 0.42825025619613366068 0.14674798053327398062 -0.84605190614506831093 -0.21466390123420581171 -0.33873686683165865619 0.093910251615927156643 -0.45722114253370965686 0.044886065049615689326 -0.12692793566965601681 0.094072309564074932386 -0.11171103057768640154 0.14293328709502362006 0.094050331961514133106 0.50175046332750683487 0.044117355378259365262;-0.18898032353090557511 -0.0017312098034120860374 0.15019491911083929225 0.06483515639006341702 -0.067727853608812574326 0.088309220370772698039 0.91711162746213459318 -0.27925909223484340904 -0.019625615583227201677 -0.05902696507960561445 -0.046005279486571001857 -0.11559313451857564092 0.17218151763579789271 -0.24865526600520454492 -0.27848050068027951909 0.35637845486071417778 -0.15637429316986009575 0.05140108806368515193 -0.04170794395651521852 0.084095018305284874316 0.19100109711630383624 -0.34372846483704527776 0.4535390098023175387 0.09457445576921197361 -0.27962743896452063597 -0.3676808314637061148 0.023023762508704893881 -0.11752522705112211643 0.97293400965147025516 0.36221239860732762361 -0.28674108343971638213 -0.20854298769774073929 -0.55553513350964556228 -0.25693417439266280633 -0.35736795557051315164 0.60218622376963049092 -0.14222516702469867322 0.31047779337878456118 0.26357355376789054491 0.35647393499259222294 -0.0226112556237363857 -0.44421690147630316092 -0.42198036787863840713 -0.46248077152731892348 -0.49537760816432901967 0.55665194651299654272 -0.36372831762375096298 -0.27622233889635972037 -0.020293212491523378999 0.39334031059383983697 0.46133617701611101536 0.17329159133008925631 0.3727886006070552094 0.6251912381300869237 0.60898655186334083034 -0.16187603467264943813 -0.87411319650816254878 0.27241341573231225848 0.17954684584418434401 -0.029353628560195542396 0.044759260250559283756 -0.61658081718734381038 0.25463267323063037972 -0.78276168239831322992;-0.012807206993387575122 -0.034524867712654748464 -0.20633963459108833893 0.12010525289694373718 -0.49309124760632006002 -0.025305433061010625811 -0.11028792647569045371 -0.097072364090383375657 -0.29598395293421081442 -0.088310831228068320531 0.032418615143791865152 -0.45119770001079306798 0.16333158259623886677 -0.19104151447423400878 0.081399968030063968305 -0.001020897822152555881 -0.25204032465766024185 0.066168877572390538688 0.78478373090713171578 -0.062810616840700175811 0.082655426590127534237 -0.097256504735987597821 -0.28300012352864717391 -0.23958497125942987416 0.036119909294508582842 0.18599476174839882359 -0.26755597793611396451 0.24923574056838052049 -0.29432501382820336344 0.17674381144654421893 0.2058538677169783615 0.77562328460217300208 -0.51313309138243401453 0.28100652033322609524 -0.33118894472853527278 -0.0033787336147399074995 0.14482206824122217936 0.78882684758287524573 -0.62694029914517224178 -0.26984299824369112342 -0.23660132428418598205 -0.18394922755802525782 -0.29582713336103627633 -0.33758188585445086938 -0.65244062598666563435 0.30837426443424448275 -0.2654698773082542762 -0.29463022906682123647 -0.23210183551995625106 -0.11958401912615225504 0.28667574167009535202 0.31615161096378624483 -0.17443708084024830973 0.13686621718409464066 -0.29481351901198860066 -0.10028406950806451059 0.40112743394365785177 0.3042621601290438349 0.16573488693529925264 0.21809130047604863289 -0.15603554139817768509 0.015966971251198530668 0.1929791242933627804 -0.165506470896548602;-0.47500865186645918614 0.079711821035579319417 0.11635428327396023229 -0.49539190107939862218 -0.19228245030192686604 0.32233373664814346515 -0.080401709612600166799 0.34852527809392114255 0.29485448154633225881 -0.60248975465734244672 -0.038600896256964438435 0.14421016056319044263 0.10034100393605303869 -0.13347093777495641631 0.35928899420956633692 -0.54016612705371691572 -0.25164535285350120297 0.3389793343164825834 0.26851400409160830485 -0.29959983571981319006 0.014843049574776459587 -0.44621596234370181078 -0.204413278749290106 -0.57799927075039236879 0.17405608835902050546 -0.047753182297766684494 -0.50082721958118170402 0.02072058904542273261 0.31427445365466416538 0.61543763959857655799 -0.68264323643149749099 0.19571125960422497414 -0.43104366539061994557 -0.58234289613019796228 -0.15555572886880009165 -0.89462318157704134869 -0.067096209777565515853 0.036666704802602194391 0.70504827485342980165 -0.013616591162038955976 0.21798726294529233161 -0.43253367631187489284 0.14343524679488012241 0.019364053803667766879 0.7262125834523275314 -0.37428996904052674877 0.20074319158608947 0.36289059125643380321 -0.10814263421454929637 -1.2517586408220020555 -0.2161544246104531164 -0.2809498875678564378 -0.028015497978877097751 0.004395733736061689656 -0.43469574824445278427 -0.15631927851308766164 -0.020133371344361859073 0.0090906996868405053058 -0.20442849269534765777 -0.27794042311872224627 -0.24944846015760141489 0.60613880355832538971 0.36735614721139958627 0.079233744142055445581;-0.11757719472751461398 -0.27572122038397012256 -0.21355712134872437136 -0.0079878368332180777617 -0.23176565252404199291 0.093724086751330842882 0.49101343291556814874 -0.22356528707912787235 -0.1653755633873366937 -0.29033903682837813864 -0.52624245749814035911 0.73206181267295855619 -0.30976712042627152499 -0.051214670849575517908 -0.90806244993567375445 0.18796082395558461053 0.48052596936533464866 -0.029429552306248645682 0.19912794840881459235 -0.29512450145943752711 0.5468844086122829351 -0.048893614664419993154 -0.078144248135080598971 0.16013828556111969759 0.53987923740696686092 -0.29282196858670367368 0.27216219357040921656 -0.1127529821860486503 0.37966143070701752205 -1.0133241757175610598 0.73849441101765744833 -1.3400546387115266356 0.90728823869076635766 -0.061352796407387312494 -0.10767428477524210173 -0.24698037888374382853 0.73670711412852707412 -0.82908629874526107439 1.5437505534337301327 -0.35996215970960010466 -0.63310640816722285606 0.075837153333266529853 -0.11111990641495154974 0.013316138523510073766 0.033127128798749842786 0.21367747267427800173 1.000916138738700667 0.21619069208155711204 0.8674890623232888176 -0.046049750068253104962 -0.48681772984902876855 -0.61737426114742932626 -0.047235845952594841812 -0.97941975294690042375 -0.34774739192613834948 -0.23085787792282025377 0.88234988221912968864 -0.29485400743802181456 0.50258118723154088237 0.14850788573086756705 -1.2644396404687590074 0.10681399355685677888 0.39303131842015215369 0.079725915223539361998;0.15443861911264725184 -0.15035754406141177419 -0.19486670794011382024 0.23346307862474705019 -0.35232970288628912003 0.28415917394510270544 -0.13101943105019564495 0.18373177782952754278 -0.13129710614158773829 -0.0069319792973051201981 0.15220035173611856649 -0.06142810843711119656 0.39392760725376718689 0.0019497512928782320847 -0.062307804170167693791 0.1543714648404561629 0.22768325944828798901 -0.056445434453143365772 -0.14126809567711196003 -0.03375609157924885223 0.14813354927612767953 -0.098760094598001196831 0.16766706776950598967 -0.23815980047620513571 -0.03406120864951907995 -0.15865915049315254537 -0.36325950503511855727 0.19443483127553651268 -0.0042365274413340104839 0.11599237843298990103 -0.20974095050436661336 -0.014209632523620872174 -0.26138392452444125791 -0.39564139502674611215 0.12433087201067873073 0.32466725150915021203 0.096030221191083911525 -0.019459462946873742895 -0.051551156984764152924 -0.2932954055425632256 -0.066970411590887082842 0.25477214091537508933 0.18076358688307267442 -0.28698995526154524871 0.046734248783736748178 0.1300714269958377356 -0.099169558937868912407 -0.028526658849130082096 -0.10829840848899725814 0.034824657474793872802 0.12347777022547284931 0.041937437452721847142 0.36531752116814220077 -0.31134311479223697461 -0.22625854760075106431 0.19101032358953340395 0.3488499196821920334 0.17431124469740691407 -0.052477078733773829811 -0.32752122047948845074 0.14470312753682915141 0.21454906527278277961 -0.071625847189764196843 -0.14241771707817155179;0.35484860220686076371 -0.10785043572003469303 0.32432553283742210359 0.15987696689953467821 0.38616700469581716204 0.16100095766958355537 -0.069558306571822089981 1.8552412996312714899 -0.14299705205464141589 0.36683242292850354316 0.90257751876306568928 0.57090254818601238185 -0.13160696364634377753 -0.2204855246404552882 0.54293224031751552427 -0.19750422596529454422 -0.71092837640074080241 -0.14480096120804711313 0.86872560920711594523 -1.2363471965764820659 -0.65882328352247065961 0.19238605755016829901 0.049849265471679546358 -0.39939159429179338368 0.51907624150171116639 0.35294798600680293843 0.17485622350189597429 -0.12902696526381360331 -0.15399837638552996144 0.22004744676906262679 0.25328368478442347955 0.045431098807866492073 0.58568569470015585665 -0.091241581102376720369 1.0930559118272362706 -1.4572028292297123375 0.39271813791081133793 -0.19230676903740173689 -0.50395073626155983959 0.96775613838649698906 0.71745702727602167492 -0.077797759092608637088 0.89056346175267397935 0.35558425381975111712 -0.83720913434033716882 0.027916596591232412106 0.51396802405466002206 -0.29289615266755830714 -0.40437766262969859765 -0.37122136635799968252 0.66794825120661716067 -1.1965440162367353416 0.099310863199955121128 0.27218205584169952171 -0.83921514493073190444 0.68097486508667537386 0.65941718719588293673 0.016707485615750417018 0.020343801666005880552 0.031728117778476720712 0.16743410164758368297 1.2262128530933200654 -0.026519932161090224026 0.78462299506398902604;0.14574453544380303049 -0.58765316016282176381 0.51350684846409044848 0.42359270914912378059 -0.11442522948541423988 -0.39522983108067161195 -0.96267640212011817979 0.057521401172338927632 1.0476285056092786707 -0.01975084315563211193 -0.32660772424744211051 1.2039543039604132524 -0.22246440069151585117 0.13914826373571348439 0.14289810789323020845 -0.81419500581856152355 0.67048939333329538037 -0.22456513286079091141 -0.40813974468731301082 -0.63192586756817958893 0.42686700543854427803 -0.12019057974188027127 -0.032956311240764570025 0.48270497527690353623 0.75387720083099607482 0.22437629775316084157 0.26770217764225290313 -0.21461196539096197289 -0.26084251688353965459 -0.77386927421733375798 1.0064667425185040983 0.29167931038663658105 0.49709458606340051201 0.17210517915661155408 -0.17363888417552961196 0.19585106959268105964 1.0377463459254214762 0.43883880934967323117 0.37407275088114178008 -0.5891438811633804562 -0.14859781925688045345 -0.11353575735695882465 -0.47183073992780716344 -0.14012953524244931014 0.96965636440583524713 1.3649877686024389778 0.65662784834086240782 -0.55137418046499775404 0.25769529660354290046 -1.439483540848744747 -0.56706328739155986707 -0.17263870685419716033 -0.3273305263426624645 -0.81832216315246786298 -0.12542326151748339758 0.019808212604384037997 1.3504582486396494723 -0.42817439968465220712 0.26725080042683985182 -0.025549620795388659766 0.05953086161877434862 -0.10052687792134944178 -0.1312341093191417285 0.22961738589752869744;0.096440567695891238342 0.4052451687274988279 0.0628466109628192382 0.23282793387493400106 -0.24829953877146171415 0.42011251602866384047 0.24116527553695901731 -0.049380412412044785708 -0.35765727619150072814 -0.55918871073856246667 -0.11974317945000760577 -0.15176807827670033002 0.12004938756919036891 -0.24244276316714949426 -0.76048716899285939697 0.70448850962876174986 0.34262885776887047617 0.070501860519584791387 0.63222298295144818692 -0.29106263126048664835 0.18883417479371122916 0.14366171694502252731 0.38133370737274646656 -0.60618616916646539394 -0.79305953950149088438 0.069310086842032964105 -0.016556523611876906854 -0.068209458482844390059 -0.153176190672360657 1.4053777772736246732 -0.92941690033151147521 0.71141438412552748805 -0.27587560068486455256 -0.19932416363283922411 -1.3337779529678894797 -0.73146876146232309157 -0.29347255507297298482 -0.048005099953852534145 1.0931053461195971988 1.0912313012335441709 -0.93616844817037780935 -0.44003376507875457957 0.30847963609799650131 0.01339499822127542504 0.090034256576453891574 -1.0157009540100394585 0.10290783190486073317 0.042067812305271040652 0.0073648699023340430045 1.0995618825864574841 1.1043277433664913101 -0.26647965765649256342 0.26273479608762828619 0.40921460252514491041 0.0791551855053237996 0.25191041084303700259 -0.22386467853669533845 0.2041708065995439525 -0.19696278622208587827 -0.077275855271833421289 -0.45139710133273736048 0.66907581942909555295 1.2273443078156898167 -0.15006279127751218083;0.36498610279907428566 0.036698329532234716388 -0.099922913553940395648 -0.026299428239321527567 0.25315985010551805834 -0.041542551442352568247 -0.070925663427093665891 -0.34129462368613550094 -0.37769789486206573059 -0.024906475844155697569 -0.23076029414973070475 0.050896147912022134119 -0.30271373062546130805 0.037039165076763344575 -0.29619170681692230662 -0.017732905650699046923 0.097546384583378276112 -0.3896325802429689289 0.22218913985421243074 0.02747746108752167557 0.060387888077699673761 0.4282987271562648246 -0.0053306233158731553684 0.11276780379102710472 0.277706626672295398 -0.03013531528486650124 -0.10694371926290535679 -0.19920154397675837732 -0.16639497015578047501 0.29090129551673299391 -0.19332345202236630999 0.026351301086365169074 -0.061866272337171610007 0.029859931353961859102 0.17247509970545624181 0.22452421406984957031 -0.10817203890223218987 -0.23555684536739698864 -0.14036380853778776534 0.17439475623115432978 -0.35212176044355181226 -0.039282408628255119365 -0.051581782201750879524 -0.031262589434410389955 -0.21886129458090175515 0.060698740179579976917 0.18632028410173648303 -0.31946225393500121692 0.082161234732893731469 0.28772224824634246021 0.16684956218592666977 -0.019538368780461081581 0.24326267209066854136 0.10480417950383909276 -0.082484374971000820609 -0.37984059419164867277 0.04840606105404186843 0.087196425885694678337 0.10079939128862010211 0.2327139811278804149 0.18844992699576620931 -0.33389965247847602781 -0.023063259380792049819 -0.14376456309565860403;-0.10134952015977187478 0.19846860571472627055 0.31151522504219747445 0.043829562632083221563 -0.14206602881400817728 0.10491537556592689384 0.045062870863134707466 0.25230118593399897264 -0.5460754773346344626 -0.44597372539525326207 0.20027187368252394317 -0.30715238721546794798 0.15254822233923651109 -0.067292493686097562544 -0.43685660663435721407 -0.08103452504387541333 0.058734492942181658337 0.32305069489679966166 0.81498731239815913607 0.17725985411230651967 -0.25371913053871558708 -0.15743612560406283762 0.18930788165755593755 -0.60170321467602028154 -0.071925908323969334202 -0.15945549010801932099 0.19332281050928346033 0.24578173472387623844 0.087023029693142489593 0.32437673954734647097 -0.32390063047407591235 0.47321041599637730934 -0.29544605875041513032 -0.17452895853880009969 -0.29400589243876534828 -0.60456791166511492097 -0.26718530250220623445 0.20336101660328290142 -0.13106196566465008746 0.48677889542284646929 0.070863467028610654941 -0.36824897952854690475 0.81517255057200843638 0.17654324887061018101 -0.20899901993781475062 -0.66372591706442640724 0.023413482639742196068 0.33789563622806745302 -0.1211487275843866479 0.122843202694116721 0.18445458808863149369 0.098559249845397378653 -0.17732829560831453453 0.22470371917539722073 -0.36908249078547161748 0.12216376127518213668 -0.26534977889924343808 -0.1331253160866030516 -0.13289739605192102401 -0.093502320943002620313 0.053434315873388850415 0.44750099300319229334 -0.0039158561312800715601 -0.54617137825937578377;-0.012770272414505947842 0.20658827777743157816 -0.071888376761188824138 0.02536197357487287099 -0.16076876706463982813 0.37484869626881922589 -0.070686453298114168553 -0.73452340026215823254 0.16693768106586553968 -0.54867071984327409062 -0.083355434777258360923 -0.60991326540778978416 0.11808113033038439288 0.0073203792947785879461 -0.090205385610445124045 0.47091166612602453068 -0.3764891606526201695 0.081054517998726344219 -0.23652793875316327488 0.8140457371197137304 -0.34331167400181850091 0.038833586764505267919 0.17845277297572215147 -0.15537386818501694452 -0.56146436278622224858 0.051964146004084929564 -0.095905133903305683774 0.32531083471572902477 -0.10067803005261188876 1.3291969193349577605 -0.77165598208633479071 0.96462431132830317448 -0.50221989903335606531 0.082373313070291123705 -0.06746404595542672411 0.86050267064067331724 -0.43728377453350458781 0.36287476938685964134 -1.1419294884651052246 -0.12373481980806301517 0.22287479916843982997 -0.054014214289985443274 -0.11802636589818428503 0.27205124595180879554 0.082446110801411287561 -0.93988444691659167596 -1.0561931358052210062 0.38493955689166686751 -1.2412226221135229665 0.57954847186841562667 0.64363574003075230134 0.95231083796625048965 0.065184183635946038593 0.21174099307483768007 0.3926969124801434341 0.6989386862706036263 -0.86956127755709866634 0.24379202127634619357 -0.22264904314270958507 -0.65928655152108106563 0.83102576914251724549 -0.40713321562949084109 -0.66920656951848467298 0.21126973700620696461;-0.10429678575044996902 0.15643365620990079545 -0.00024056034459425893065 0.22385767807750717173 -0.087746589671449326531 -0.25461696522731924741 -0.27079373258185213125 -0.69726185922527483818 -0.15590261467219415636 -0.35250967993592996486 0.32077258653815821088 -0.40630936805564460412 -0.27758092119086630323 -0.19636893242878233901 0.73360182116361039029 0.22565817458865225498 -0.41995262664164900723 -0.15495315100451625967 -0.2349713644540715185 0.96670656337821059267 -0.54313772976896668165 -0.14043523536593033318 -0.14347158438814058834 0.32748790429736995833 -0.6001821780402080142 0.028745079680569156355 0.18499452217484232963 0.37441602596192274932 -0.3387899961351163447 0.6263452390712307416 -0.69669625234322307694 0.3936510168555596989 -0.26606672622849669718 -0.21049714311018966062 -0.16167168921479443955 0.7125778683657802981 -0.063335917432216171097 0.62636640373288299255 -0.8283557210757078737 0.34133400899722843302 0.048429194159039797019 -0.093984532347082330728 -0.24563701858987371796 0.078520946151391129986 -0.34561664997357266493 0.19173602335699740928 -0.51434434857940414254 -0.057075739738996829342 -0.73545135852817289379 0.17696009405621626609 1.101239702640846696 0.22328641226507689455 0.38502487552734426801 0.76151451412308646116 0.63831244923166652327 0.26388151698917056143 -0.34552693564381220526 0.35974688420662886967 0.0003791564081943794612 -0.45311025154900586021 0.88073906543426061511 -0.04482473519593400263 -0.45346484069647507997 0.22493776219091007884;0.1313671741577036034 0.42925175300300938419 -0.23630858850127300919 0.19177451354645100312 -0.21717850412021919015 -0.083635743445886742697 0.43242287286324965212 0.40628411501575051323 -0.12048204156704438172 0.092971319410482519685 0.23954336547945706548 -0.19762232742040500288 -0.093947965100496230728 -0.36127671708287872887 0.046848887466634195342 0.31459992461173807987 -0.33229747064580544835 0.4076773656416223246 0.17991179673389223748 -0.39251422726701679089 -0.25332477379920920191 -0.24757757796060303468 -0.094439775102312578658 -0.48197347210193025591 -1.4812689595420434063 0.10385055027242490189 -0.36518743069312792349 0.20743882083163714403 0.5386235808321760965 1.2771730628099244864 -1.1634181488711961006 -0.52204134460972895226 -0.33466850672525505495 -0.19049934517023695002 -0.1518229840722716828 -0.818579726588472667 -0.82935430688061828608 -1.1817950891017028336 0.78304433289941288709 0.77712654100650513378 -0.0064959972625469554128 0.22813810747134088963 -0.036620107845198521246 -0.29862426950313347707 0.21304375789754978476 -0.14396694035738019646 -0.12171652596261084422 0.30696425443987090942 0.086219332509389429164 -0.13116945250066971984 0.9031119351705442222 -0.41785464197644539563 -0.18976413181857421097 0.15065443210582701861 0.27667921682533452854 -0.14921659159665734418 -1.0492948797328807142 0.062973412500353431742 0.22988097163381540633 -0.32177319934311987559 -0.2314427974838431934 0.61200581716032576018 1.1267144476485091431 -1.0733727627750420108;0.14028986273740265411 0.14520931630729838613 -0.17593627507781142705 -0.14795920707212831258 -0.49930255890804664531 0.21916330835778732866 0.56407058466112436346 -0.13802613185314641098 -0.44349537939119509922 0.0070008675423871239568 -0.30851291065679792291 -1.4390648531399887755 0.23819203856587042867 0.036997069812356522811 -0.39534039443952773141 -0.48729885079949836202 -0.20194260183240062001 0.024839194244746239104 -1.3445162172224236485 0.66499037532534488459 -0.10701453119743832565 -0.16158079388034313206 0.36900681453509026619 -1.1465329129936490116 -1.3308345147001863218 0.24386967991834265779 0.15063690950920727296 -0.015360652154036936665 0.67543242720448881666 0.92911068880484104504 -1.0357523720513677201 -0.18488406876585572469 -1.7280685160867315098 0.055822557234762426592 -0.6467148863905417544 0.056419005166917758631 -1.6266207332329616353 0.050216112080282405972 -1.0050831031141769234 -0.21674370119478308938 -0.57171259718641886938 -0.20004772465875841903 -0.50033968353823932151 -0.29340167557799312625 -1.1263072486880583156 -0.18551145468889979062 -0.98820682469428278161 -0.08346595876170639916 -0.86137112944204241582 -0.279182621112109286 0.099404773477507230028 1.3690665430978279371 -0.2179360020941052134 1.2929010858127332195 0.66146020192907339919 0.19185401240463503814 -2.41020728977847698 0.13985545983551628257 -0.068801502953011503538 0.18885983380269719123 0.89534383690321184268 -0.7884473844198137682 -0.69144311187460538726 -1.0962481574138667195;0.15060493835383587102 -0.2362760973633262207 0.0031521956826464493477 -0.19242015169738990732 0.14427920259273013803 0.30018940107155439589 -0.90850377107791591147 0.33366948517043149014 -0.5443148187315857145 0.12173615612472682423 0.020667164480185983011 -0.2811797664236374561 0.15871468687345746673 0.13786781573984308036 -0.11865793247765500651 0.36687787363156193488 -0.24837415541917540196 0.12816738780337574855 -0.095378461511471723799 0.16501779307843639222 -0.47007697017897509539 0.031316457838886480047 -0.38408578312988961301 -0.056586314430852727164 -0.28619909585235431271 0.12847313405415222709 0.23687637426129429241 0.16484442096268139832 -0.32864961208565945938 -0.22877828244913103739 -0.24621487977835485039 0.068024118911526404441 0.15100703286002403747 0.32335318890418801585 0.16256592335957573137 -0.20980231612126934437 -0.096089242266382171587 0.19975985985888319862 -0.14601979672871007176 0.051578283135592803421 0.025961731130766940723 0.4553071603756542185 1.0217857844315356708 1.0086541051654018819 -0.052862905516941088857 -1.0911552760427218889 0.68119371047467247582 0.050789738742578895148 0.25111187924564298823 -0.048189492941104729307 -0.23099763013073681961 -0.4568060745178051385 -0.047026747435515055262 0.44277318612443095081 -0.21260681036211945272 -0.59994424296077908387 0.15604785425169839796 0.37579965062873565973 0.087370569714067022882 -0.33096645176642869313 0.006598985041894758416 0.33409203611112525678 -0.20529649254998474928 -0.15097521834016433551;0.35969626016807931812 -0.1346339894434586959 0.19825218694127447194 0.26476067308784489995 -0.029136736857636499898 -0.22983669032833747847 -0.23455498884509398683 0.43254523330925076507 -0.23548421215830778186 -0.33796950156297711487 0.14868605052582570258 -0.89119832648307639733 -0.14861275351781955134 0.15199824288605959244 -0.14883755935334377907 -0.19807516619559306648 -0.53943958907033340289 -0.29348774376318748081 1.4238656969774250438 0.26320450181374599463 0.32358559499550321181 -0.40243941868029164954 0.30494773877559178121 -1.1927617249058271032 0.68046488421482553832 -0.41008752384915408973 0.095119858032105431001 0.091652200935251351699 0.29056759202167919964 -0.7803706947894611945 0.70327878690147216378 2.1125191290025702173 -1.4041992666324507599 0.036035405904780867803 -0.77203039723352073764 0.83349170118609416935 -0.019529076464747757019 1.0079132089954114804 -0.64580263439879337373 0.12534124136920668513 0.25987732549554887207 -0.4220554011734404809 -0.21951923725453337255 0.18254127197631045409 0.10124742176243362035 -0.95639891707878654792 -0.80602189902747489736 -0.044666759661095886691 -0.34554641798047519563 0.034257728874271642372 0.30476338398716790179 0.87937851457176297032 -0.19205675556953100136 1.9263013391634691285 0.2767214314037559908 0.2857029744099370272 -0.80130797965818978401 -0.050713479205371642111 0.26438647778455132142 0.093401913705412981104 0.58056823486836284243 -1.1232671860570042632 -0.64107183946833712351 -1.0741286755970591571;0.072103360492911564017 0.22355885677844442028 0.21274174820237187755 0.07314052573346702113 0.24682551791662016294 0.20442821642321498676 -0.29717306287574996038 -0.19099469850003389371 -0.069073351961669665622 -0.20235390130821784282 0.21724837693372675562 -0.77673449679862927031 0.46496458882724861494 0.079271708795429732253 -0.23993047068816114598 0.011946544420792832783 0.12870710427282860966 0.014411827808201556345 0.11461717928853282222 -0.27681808033849114592 -0.073123374506621791058 0.10031060224234938927 0.084367838820967447355 -0.19293970312189120953 -0.29763927988996002894 -0.32082644921595010468 -0.15145920398362380799 -0.086564911010347994624 0.38682765021710979747 0.096421514791167325931 -0.24551438380750173485 0.2243653178532876713 -0.44577545133223622775 -0.40474368150441097924 0.076130441762325834487 -0.097572936525030795618 -0.37868548425261544521 -0.18437736154960940316 0.20349844117794591014 0.22530524459193820852 0.33218195391242033576 -0.3868287153168228909 0.1971238233251445815 0.063220254054499075425 -0.29959962877446760787 0.45018665744533825634 -0.38225634992731571948 -0.073274969640766240975 -0.13552587886282646545 0.40332059851988910637 -0.071982793569278183399 0.035289064110262086116 0.011713810792747376271 0.35431639794275765487 0.067741779745565292026 0.26343235972475831375 -0.081687003523643289538 -0.073542934372293256029 -0.31268918305569015637 -0.10153007616840035998 0.23151137874527816241 -0.063720254221387495619 -0.13221121172704072833 -0.16881956862052074908;0.21958372754009061745 0.21389236124495239477 -0.24912825155828988155 -0.068228127640468871906 0.0658602985845833655 -0.21603680914720230222 0.033043251558446035121 -0.26321660749956138359 -0.18065644493066465581 -0.26633661421968485294 0.07979596452459990219 0.28084684130788861722 -0.024356435351910565856 -0.1359536751444900271 0.1274504006606751727 0.38073307214736806792 -0.061842421543393956418 0.23301762978131410065 -0.38916440718860773051 0.30204750150024134436 -0.14476674035191594569 0.18518161499835850137 -0.13595427636645132652 -0.17666862933340260478 0.090676789155202539017 0.18462146778027968552 0.065598179567010056479 0.067738384574668450422 -0.14471201085561286037 -0.19492341375484326105 -0.36743676262910096586 -0.40624555625568936623 0.2271817868195997181 0.24026645706516272516 0.3067869854702025556 -0.091759857278597076191 -0.59099063723189371178 -0.084765404505548744285 0.40419854169316737913 0.0087790455203443674981 -0.15345725508332633269 0.36026507793761380904 0.53839550230143295995 -0.21631444711881298026 -0.21585659536891066423 -0.18029325544152474681 0.083849988607988229505 0.088287490673926244389 0.041038961419058161972 0.48563707631237762463 -0.30817636298859685251 -0.0087007946497582033807 -0.31575760319618800809 0.1135058078906849427 0.29167968139910566139 0.1779699689698936993 -0.06149621321718983652 0.22176078425794978899 0.21474296973717721393 -0.1958674625575763939 0.043888397500827423803 0.080421050206134089833 -0.037328435809454572902 -0.25503171194896512297;-0.13289014141584187811 0.08975868208017381833 -0.08856953902779765575 -0.32262614619024643225 -0.022675848690133133118 0.36068635254025316339 -0.12270481130306389039 -0.66992104597787349718 -0.20589147020415662914 0.52527918796027506243 -0.62460769236379343194 0.79911902352609298639 0.14091063565134909208 -0.1217024940722364057 -0.047358358259383066813 0.7358573202996303575 0.30233863817309747368 -0.027484973811944386074 -1.4036182424613239395 0.44629960747759456208 0.20938851354764195789 0.06075789979213213482 -0.22252790690686047315 0.54923470890256198551 -0.35005847492260716569 0.27070954027294680255 -0.097330184959774176945 0.03651081191249978819 -0.24790233670367758934 0.20716039179283235461 -0.046877341392786923968 -1.6288118306087324694 0.69720491785665672513 0.10073737340548698238 0.11256415982772954854 -0.5414971801645488414 -0.17848147700601907362 -0.54042379262614959057 -0.003561726993123107924 -0.56635971442179555702 -0.0244902434702404595 -0.16600963780614091947 -0.71963210580269831862 0.011077386451473398427 -0.16806840588578264573 -0.086485991877845364018 0.09441402881504271094 0.069589665322319846363 -0.31112726367861370802 0.31199368556350509651 -0.97010031319813183615 -0.085638037979942877032 -0.1417363614396393301 -1.3027482131387826403 0.08249898364860014377 0.070049506670226552307 0.55584151306396845094 0.05131619802027968108 -0.24061636366741132043 -0.19942928526939479594 -0.24313532984506264212 0.17521392500175630991 0.2476864158506681679 0.052944991339900729366;0.15720866061409688452 -0.070437906486950807583 0.083850842875097614249 0.21514177960722108418 0.3162483335817190544 0.077411453491997087029 0.51430116664838376739 0.2605667543717590795 -0.072308697214438125145 -0.20084815785237580821 -0.12850953604159714994 -0.0079630482567208133587 -0.50711243222978164003 -0.11793920231177268398 -0.14486390706717786059 -0.40485509808965375322 0.23732100336177897049 0.063329728808850710431 -0.18431838627755506299 0.24381472217586849793 -0.27421024180153968919 -0.097736955461217536745 0.076924839870560410282 -0.068790182643012842689 -0.11796876191677185819 0.27097699848554557267 -0.249598592380551626 0.21706490955675575294 0.088498273347333206162 -0.0092522099125186291896 0.17420485813369540606 0.14780644876084739203 0.27747884644717762948 -0.038208329393896497961 0.17700789605577654795 0.27914922757590843183 -0.22410409430995525959 -0.276637801898947433 -0.31632951125866198838 0.56434476487007290135 -0.047656444487597669768 0.063345064474399429 0.44650058039486906214 0.17275889252217249692 0.19452327356006909875 -0.23158076827269100106 -0.052165655209274623683 0.098792339253413893885 0.31509906554313144023 0.19864010936586865008 -0.075273912526705261117 -0.22533061025692685542 -0.15337437738333120629 -0.15193692027193839156 0.12465753770759957497 -0.30035929837932895392 -0.060489698666267403826 0.16906539970276293627 0.25246211924236500179 0.17595359948651845272 0.21899645521877161847 -0.14799584851706870658 -0.30350840192676975526 0.19081513073497349819;0.15653443874735065156 0.2273325578904216715 0.13437529298273251377 -0.057301543843511541787 0.10896232629466939823 0.018853682857057782463 -0.2068993114740454442 0.50052676506133420009 0.057959122194606645107 0.80699576738536737963 1.0682164917489478384 -0.51868418020931217338 0.19319685744265979732 -0.36030427176672907841 0.97483992817552977961 0.19635444653499251055 -0.89469243327698222412 0.27316685030449150418 -0.18491559174731264648 0.26004085666308940361 -0.94096162959334050946 -0.16558932842826504239 0.13097295240659870275 0.057178542889206054878 -0.15955288483233859287 -0.15511716321919644113 -0.27615806678295073961 0.2194727875299930242 -0.48107622469258259912 -0.54883305527966896875 0.65985998787344335437 0.66957634469381333009 -0.38511489969655493537 -0.13981912668599763561 1.0342521078084421227 0.25232968816833656334 0.44016606792050594343 0.061126661516244157335 -1.5662458140299371223 -0.73693824558929543755 0.41623160890357441266 0.019031151485058222378 -0.029707517852320390606 -0.093530100042430119878 -0.48945268859911128523 0.7309277997751459921 -0.73972822318015607479 -0.10622985022182168668 -0.92183696238447199178 0.21266763161340895838 -0.86904579780163970781 0.87772087326642400651 -0.14480090003381235197 0.52389422269908236807 0.10526515267242103624 0.19498362672580710209 -0.53828558277067684035 -0.13668396334286780913 -0.58310940371169062146 -0.28669868965490941104 0.84065161369230800847 -0.59425427675031883279 -1.0741088612201512564 -0.088174886122092219209;0.24498099704657499975 -0.29803427556535239118 0.275354707551653477 -0.041926304940952542621 -0.2652290630555446671 -0.16183836162298625982 -0.17156689579644418542 0.44231130658817952028 -0.33585548820726301988 0.12751412698328695727 0.0087076681980933750421 -0.23538550637425181833 -0.3919658419419171369 0.31600367288307190661 0.31593142395474260731 -0.47367764889047420107 -0.48468248254744966674 0.18518767769144012236 -0.51492881485800556796 0.013718833040352909972 -0.35627488810957369525 0.30957781564733682922 0.1314136676980235674 -0.36586446991668175599 0.14747457532175731187 -0.1651253104673795491 -0.017466103788500244448 0.011717593021536082051 -0.26550618593549790702 -0.093379809845043640348 0.19328507680355921927 0.4637834302218671878 -0.33387930231092782796 0.28088221820185010902 0.35483191299609811997 -0.095175258726964320766 -0.40356194729775762831 0.018050579065716196997 -0.42106000178848873583 -0.086838403821125592641 -0.26866323724662860561 0.38006714257705220827 -0.18882234522308019575 0.043735646293562781273 0.096229978105385888254 0.27882179012755420322 -0.15405789431965830061 0.15962287092771471064 -0.36482435949255209717 -0.20498108592341371392 -0.18342230511546095406 0.22214174804218894677 -0.43303621857412588625 0.49388114437802660417 0.1747220116923134392 -0.37948248927510386252 -0.7738217953314592279 -0.089008240439491792539 0.2946764726719393046 0.3386895646762945189 -0.23696916212449334327 -0.097973521561722620721 -0.26639260043649382048 0.43481427710194059388;0.085657093720179350305 0.21702449516909677607 -0.068685852181870302169 0.012167398339520201292 0.71640142247488880489 -0.11265328452903188017 -0.29283242087070077142 -0.52580912125950862723 -0.66881790429482979032 0.040833190343830601254 -0.081166316315000847093 0.13943073859853394314 -0.48071646393223721461 -0.14110586032631342035 -0.25469510494174807391 -0.11173231327346783148 -0.24998893094200852483 -0.29227997817943596193 0.47448929528481981199 0.04452646132899210768 0.25884432250131678144 0.16888453732488437065 -0.40435204945743002947 0.20292139072545350986 0.36596673730896778221 0.40602365381506783093 0.46568225830835885404 -0.24174326051758729395 -0.26045326781615396605 -0.035541260363562796054 -0.12028202261974667298 0.056631120191548874054 0.41391264380153214297 0.49729705636387366852 0.23980959171220628257 -0.10659579790621290241 0.10746137358839186193 -0.17925114680884832175 -0.24030136191269430013 0.089531895905466188368 -0.31091812762991843933 0.66905268978063159313 1.0309342395740659359 0.91074551936524694717 0.44876391943048854483 -1.4850515063064506638 -0.22052212731760276188 -0.041090354499437681257 -0.14425815261789504129 0.10890332686164734544 -0.040187071175825726799 -0.41240961709122286871 0.11516835986624651689 0.21798562923793254886 0.2238252074079001841 -0.16118224883176460183 -0.23755438231831033091 -0.14119059366516112375 0.25438636582255197416 0.37067081945384616759 0.23079045521946339736 -0.1300401701175893654 -0.051038769234427835975 -0.18836585495983693139;-0.23895985204819678027 0.30899806028781007239 -0.044477109028823062775 -0.28297199053272115155 0.0026365993285282036604 -0.21336256337748460421 -0.064541915989148199162 0.25449134686993379884 -0.19381935100623956525 0.25146094186430228978 -0.0060593154778287496715 -0.064135075291659668362 0.25120131576287690889 -0.32503168022696066197 -0.016653584737961704687 0.10378852814926989301 0.10516664493892734222 0.093789821160931527433 -0.16707620139062176468 -0.17624423718573231645 -0.246626600991905226 -0.062876072563446114283 -0.1872224559556247836 0.20172579223324932363 -0.095729484700301778477 -0.20140307480846084132 0.043973984912658962976 0.10886166750567650985 -0.27149624773853053838 -0.078132642515497230384 0.32643415524937030581 -0.097453278057146028313 0.14004746385479660553 0.03183561420014204002 0.33832471935191504864 -0.28965197914250256916 0.19744859861470470674 0.0029427599480585896197 -0.16360346522037755301 -0.18166304113161621525 -0.29127625844647098141 -0.25362717236356219219 -0.23173565264160375654 -0.06462454257909641675 0.15939591080780440846 -0.20758945550561402893 0.00087972475853559416788 0.26516212223844948248 0.025677394554468366272 0.13675684897190115707 0.0045000184426605424962 0.0007990736082970950659 -0.11007664415404601332 -0.029269928061950008236 0.15238863087291804055 0.18684798377597364172 0.099777837686885972879 0.33473656485925845638 -0.31758246426875424984 -0.23890693611759769577 0.14318282473143020828 0.19482672349351456975 0.19812417848373153895 -0.083080089232415915701;0.098662829030337614866 -0.41513774972769762472 0.1127569268417435433 0.039257831622949788952 0.19043501047222483047 0.0051313835072676885693 0.22865487625432098784 0.51224021486203963338 -0.1902085544889658697 0.8417494366531341754 0.15298993215322700956 -0.51873366057133929452 -0.30209695885323234466 0.53231036935088937856 0.37169608696411060578 0.17247580265995041127 0.18448672462733103905 -0.015953805246519871947 -0.070032313219968944651 -0.13202681083724115974 -0.64925290050745110282 -0.067439887004462323317 -0.25917640152657595021 -0.93035270219191912311 -0.81859899689717019466 -0.0084855174367213792586 0.37751617421998462376 -0.58127096683987533599 -0.055351124737033761958 1.2111896678198390553 -1.1617601552577827562 -0.47036758323207616961 -1.0722766873836393486 0.045230035387311184891 -0.32837622829288726223 -0.14155989249784564632 -0.32696435382130245584 0.006808235939654117691 -0.35446858870953773524 0.32005607877743175171 -0.7655259289075765361 0.12472617834049863628 0.31579380992400168937 -0.26414696686089200739 -0.84727774856967430495 -0.20706194766271587837 -0.0042747434385720589969 0.047209273508933315144 -0.11379149217096146129 0.39227992348607221285 0.84692873293112447275 0.30410808203265460303 -0.60791997569369105037 1.2166216827388312005 -0.022600502862349689664 0.23784625266405795552 -0.89806992567047694287 -0.088277543116023038383 0.66534884994762066857 0.19447410045453975003 -0.41958792719186116527 0.55507855649213877491 -0.043352416403185392579 -0.93141525496574384402;-0.093135391373483603084 0.27695107861935075455 -0.26000949991910410342 -0.2547391317113552045 -0.57581624140942078149 0.23984453740638186914 0.83224196446580878117 -0.1172931471568722378 -0.99719977708318319198 -0.62969747088248306799 -0.077392345429069572815 -0.28321377125874552805 -0.14643146502087253658 0.15458182751130983279 -0.38342215141836771819 0.94158618444711927875 -0.11370613459271093626 -0.11035227137293666944 0.30887598786686265573 0.69590442683150000036 -0.12093600477936075621 0.21067499447218773767 0.31087502033207703445 0.49676679515839944346 -0.37322387524219979849 -0.60660706194169466965 -0.55370533719637327064 0.27454224807207899817 0.63555398214315161898 0.82483097837803964758 -0.099025774139888125824 0.77799118875032569065 0.11827937349222451824 0.060014805707686386116 -0.23686407711023307887 0.75630037118363613313 -0.22409332874133372493 0.37137704073576049968 0.39472468824119555375 1.0047547046589428987 -0.19609044502854827696 -0.11579572022234733975 -0.1240572671973661778 -0.097909542879883751376 -0.26676873087687230646 -0.5242709155327047732 0.44472923731291241767 0.35132849032812119017 0.68735671321394320454 0.75768449446322772012 1.3256996293967200362 -0.10252534955387473947 -0.1548801600642277787 0.73405290189618688235 0.48102371428595247504 -0.060481115741870185298 0.2790312875489281419 0.33396616762601094575 -0.030653804374716476372 0.073826463581339818454 -0.25090481975666983905 -0.34326498497205232274 0.1778439155681266759 -0.18838725584280915926;0.22417018522824055937 0.075023114280529226705 -0.18576544953613563504 0.26843301140782749314 -0.11580940463173654276 -0.31683012435347346347 -0.082325676589853402643 0.21458204247259685116 -0.60120499613533917582 -0.21458620605078795873 0.46776943413906718616 -0.51256890685752332093 0.13394557838571852226 0.29980226828163947239 0.32827962568736396287 0.59610941578131215746 -0.29686638197139575412 -0.13344609840254084698 0.26988726217287523079 0.10003483632321767682 -0.42615457428489778025 0.090814059688720027985 -0.6061898265914671402 -0.25713230260605490773 -0.25845221716434790826 0.76705002749576634002 0.36769552541197597639 0.17038145658571804408 -0.20655131761015488312 0.77952927905602675818 -0.5018423741058748444 -1.1134122189483404153 -0.2489574019955697326 0.41241090435104243994 0.15885472248664761485 0.0096464267096158379244 -0.38265239657120586614 -0.33032875476043194185 0.48300466889978527218 0.47625728368366926357 -0.38858742443668409239 0.38478904179938605568 -0.14666419169598488015 0.35994373577325988744 -0.54140417900085435754 1.0549050723090229731 0.77445761615546870882 0.078719169060454993736 0.48846886062519467853 -0.22814818959520338781 1.2681574096202545832 -0.51715391992012371691 0.091796296444848310414 0.55977866995740066525 -0.41519134931594908755 -0.60212747847845848881 0.38584812699191495255 -0.064331805859128288194 0.43087947614601723734 0.42133744209162726779 -0.96320627725043284073 0.77977451159437727313 0.61713127895221253638 -0.12658086655943018295;-0.12423802230779192046 -0.11498038187632821094 0.21702485579234531698 -0.20125083913238706046 0.010740702248938284458 -0.35186277184532449569 0.1743097500463429983 -0.28410868390939009176 0.2476205861884742121 0.19869287791332979065 -0.12134120853168002541 -0.097584298336161695575 0.2078480401607225303 0.09843157135302260663 0.04865883895791926067 -0.27211549756785968768 -0.040275801301056991799 -0.15701296852441284924 -0.22447750204565625198 0.13790058712989058942 0.2513519012517493878 -0.072992541635998317573 0.012760111590378079086 0.3362663262470462211 -0.11284549450626002454 -0.21316908403880968637 0.15878791951189627496 -0.21236191521496819434 -0.28055957041197110424 -0.41806764771945825743 0.35063447182348111975 0.049487016017687644742 -0.036704045742857266399 0.13142429917961390151 -0.38189311807672077226 -0.032219546656308391264 0.17369587762994634361 -0.099483455850385801855 0.13767450672932424194 -0.22527690294071189836 0.35149404411147033844 -0.018247536894800395202 0.32588957598925161196 -0.13892068143047001105 0.54744697479691906139 0.13805133740095404393 -0.12044409235582349826 0.014519686909874030684 -0.34169503897431618977 0.03296577113075956772 0.13401548746513466948 0.28510738480912678483 -0.082772111533349596035 0.029356874666791505507 0.37251192283592626797 -0.076272168895759856477 -0.15790335567221866486 -0.17454723957067583284 -0.1047109462218220044 0.36283210136737692464 -0.16385612928937881572 0.039067351030380899346 -0.39263574893710134761 0.16623250154925686695;-0.16254339118906976913 -0.090313821437924615698 0.14033197549463899412 0.13315433531433901182 -0.74128352131179464646 0.33134241505386813342 0.020705403899105630922 -0.49359393222269726254 0.068704099021987014018 -0.82173012466609185456 -0.83643387310303363158 1.7790714137229037828 0.15591029041711723657 -0.036656607914534261594 -1.0452052091275036982 0.97797454764534708094 0.81533242887217050043 0.038644003220613613869 0.55843187124500304197 -0.094343581909361290405 0.73613124398490370481 -0.068486659297728375018 -0.40098150464093756939 1.3721549808250355085 1.6719708741488374937 0.46363379475543181618 -0.033388121795786283863 0.21704190158518102405 -0.65537622130797523745 -1.5352058823331409254 1.9275963932508464183 -0.84500572738150903085 1.6948527879763191084 -0.09324010373388337547 -0.92365280849201891744 -1.0178916873016183864 1.0250481642262574411 -0.55381681421686590472 0.94336833978109768672 0.49726145745506905582 -0.28426586751635157801 0.063791969475114423949 -0.75326814145526566069 -0.33781709339232407485 0.70063191279572167858 -0.19522326953271143535 1.0410532550671225405 0.28550564454496202282 -0.22295783288542364575 0.88254797253133110413 0.32313116803384694942 -0.83462435174150484407 0.3866118735338867074 -2.32701573742940937 -0.2370946249945665163 -0.34185124371481984129 2.269143178785966164 0.15370405617290489042 -0.6219953234938097042 -0.14939563266342681391 0.035889820443186871979 0.52857526848995350921 0.22888587839328292106 1.8176255992209140455;-0.29908995897513657169 -0.099371159397980024508 -0.27290855086724002954 0.22827114991548760892 -0.22890974841823305552 -0.18290044236228836239 0.25992337995473313583 -0.89265083071231088319 0.0067006783694953759786 -0.21286918191461937089 -0.084488671266764334145 -0.23148251722423240917 0.11829394965882197854 0.24451259013052076274 -0.15657689107334407663 0.17470396699482187985 0.47414666963996632276 0.3338102281618545164 -0.10428394009134205056 0.22893873397427971783 0.016596655320816076917 -0.0040776666038633896036 -0.26724183439626958414 0.30769168073155939158 0.27534085016412263025 -0.11343827547921397914 -0.17141390575832993193 0.1085899702626923341 -0.37194302431487819005 -0.39493449157276916406 -0.14432902875134209775 0.046460446638448719969 0.37491914353166660989 0.039998179953385025465 -0.42757336989650190917 0.025241364438094042455 0.33176212119669606926 0.42536391121017386174 0.031216211959463908282 -0.26032996914082345841 -0.028523765025849544263 -0.22904615884687404281 0.088347569876901108077 -0.12666988967268599797 0.70511069072771104249 -0.078263478399276595332 -0.73044130480340196954 -0.021049967691534159087 -0.71285241850338920688 0.37801015047542169123 -0.43122497986060182029 0.28124331916343781046 0.036908695930688753539 -0.5731547328389173801 0.5077957432224042833 0.27225966185646749418 -0.25098537664231584943 0.16776600378997419405 -0.50912072755976900407 0.085419175814344550091 0.27783448968337293161 -0.43520981655548990341 -0.67083730514851891424 0.034446794113000667181;0.22075653222139976495 0.14270923283228556522 -0.17154710086778515721 0.10265348364636733836 0.041374806510877479293 0.27214671173856086472 -0.0042835086227853919408 0.092136754884003954635 -0.56444413887775657379 0.14922314235366709867 0.11977317065776257876 -0.18364455458875034166 0.070669597011747298243 -0.11033431018265092705 0.035935990653680034701 -0.15094955132235537976 -0.19202933219120935093 -0.12277846997495815706 -0.15688103281233511943 -0.23561378496670751237 0.054803487292755755089 -0.14320742282384557598 0.17925088940794534076 -0.304344557761650647 0.011988507716370220765 0.35438066288369340917 -0.37251340543581878961 0.064474430452449132956 0.0045435551422528600019 0.12648398153309628467 0.15139494368029429716 0.32289349892666135977 -0.15694108978760001882 -0.29872733159771402978 -0.26117736052438927929 0.11224083130615439274 -0.19370696783421942344 0.11500754686465843035 -0.27086686494499578881 -0.096663617760466918893 -0.2976668216870921313 0.25157436239858760318 0.35315079973985935569 0.15277388235749433942 -0.040011276544099041996 0.0067823336295482206104 -0.037375876070288825692 0.10398773639563725635 -0.22938498755160524611 0.10962690838713233521 -0.14437066668642950518 0.18308115416316839141 0.31766689676299147971 -0.22938203318364086547 0.027573437312186550169 0.31343093221169382456 -0.084020366188233025495 -0.070216115003093090841 0.3403940688775095591 0.27203300962042364919 -0.16701153997280743235 0.2816639768464755389 -0.39850471436763634792 0.073251180562333650936;-0.097636922983894411376 -0.47293831528832352973 0.14388091491183271908 0.47330077008798893123 -0.062979308631926730899 0.065689691457390744778 0.30142525379885298786 -0.42779312118644358121 -0.242522779810189687 0.3359250276472788288 -0.25105687873669857435 0.92070981392450745862 -0.03248940879807291765 0.060787472397149017178 0.13302699033120085614 0.27707405943379920243 0.069997101324079658013 0.0041289574994191119081 0.27310641501560345423 -0.36597534759780059321 0.71747763736831016157 0.25811068535279368952 0.12344959196677127156 -0.067175279458519449038 0.26750794891413792742 -0.0042851983579286880358 0.0435373525627255481 -0.30177889590697637434 -0.37020774809932671667 0.26019152946826334949 -0.59459389712364119074 -1.5965731335915791522 0.57700912317461661161 -0.20963822832756229264 -0.51373234213027085815 -1.1106095569862926009 -0.46502346186052984089 -0.5359303476659417198 1.0845588343369740869 0.30880788276463722042 0.84828038190076882064 -0.45363518934026375584 -1.2088454007720117467 -0.48110510237182363413 0.42167914388821847727 0.33258901053698886052 0.18640614817276626725 0.020984735529605520049 -0.20578822355998627192 0.29396743552913129349 0.81197394229330865922 -0.15315991801137665562 -0.00083360631057028235572 -0.8386050807514985328 0.16147228997787743676 -0.10053493063201926483 -0.13195726591579612363 -0.40025066845576789953 0.13673255918593052449 0.45561270695357874994 -0.20341587142016390177 0.39920176095032339214 0.95459281287484698542 0.13998038461523951148;-0.07387390966542954629 0.22484474146655147875 -0.17489568390263574016 -0.27320793212491201185 0.022539701081980823699 -0.13921194763417335527 0.27659309379296087572 0.25151442471239321419 -0.090697497344315605727 0.11085741981898812603 0.073956749538135149735 0.025174423339913688802 0.1032841605228289189 0.1640783428129823085 -0.16504828229168341802 0.011488023789737974653 -0.063514260076832987356 0.21515315232735093831 0.18565651870169602722 -0.23426320544302020599 0.28272541724769612026 -0.14914492732958814503 0.29055434439334998364 -0.062352250324684117821 -0.13421913817353192666 0.10115626219579128275 -0.26190626582716219906 0.11801976034736295917 -0.10562115669334909418 -0.24438078185342121396 -0.07979496446382028374 -0.10434932648096029162 0.17048690944791802804 -0.011365536460165165389 0.1818183136093203256 0.32986468862462497986 0.23136406282113172739 0.20292115569065360958 0.045065885434578123458 -0.11738579168478333048 -0.19202562318350158144 0.27741100984224198456 0.11568883129582005487 -0.22336092884495764577 -0.092284207594735545577 0.11984510360892804137 -0.39992542130938879552 0.29153154233156414188 0.15893239514466028783 -0.12855086287836556269 0.0011444123990114859948 -0.025762708771604195951 -0.068312881876182479646 -0.26160960096926527685 0.065554233049249940879 0.24150085161131815137 0.1184232865194637524 -0.15137918937038458145 -0.29933140693219384421 0.20244435396751567224 -0.040333447645846544349 -0.33912798731750498638 -0.20149697714874101329 0.34899363530739074823;-0.16461766959388707265 0.20119106653454088551 0.063870851733914435489 -0.33964935683843311409 -0.26578422149021913024 0.024191378366562835134 1.0168600788633719301 -1.1791530998011692244 -0.61049035320143163474 -0.80361336937340999143 -0.074570741476854898733 -0.5095496419627024709 -0.20728227756515502089 -0.31450725676051527469 -0.40852910030733835534 -0.30102402209893885932 0.22253851868435156613 0.17113305496500272329 -1.123337185599664334 0.79633378419864253583 -0.037082208772980643219 -0.43391664785218242439 0.13397817429721267657 0.46697401534883586915 -1.0292160021327918518 -0.37437279913204413173 -0.57543894468534484421 0.54685881238569766793 0.86441555618311305409 1.0276193377286946262 -0.18047601175479296987 -0.80176041319617519232 0.50678482524853529778 -0.12646287089438446039 -0.73470593694525987427 0.78190482494843427386 -0.46937146611987939915 -0.56577820508316811754 0.59898260399990965741 -0.1126251472612675858 0.1349499646421407073 0.43536900010365769953 -0.65834993215028658753 0.066400560542389866492 -0.25118873837183230968 -0.30016108766194415924 -0.24141221585704336627 0.50606871450085877395 0.024551888451853968315 0.34660032763522091726 0.58825444795595938086 0.13083484265068595631 0.17651127661178905859 -0.66033574526561056306 1.0819260018106908738 -0.099405970797176834708 -1.0036979185401564418 0.31249228397920292277 0.19344432216541057601 